417 128
</s> 0.003127 0.003453 -0.002992 -0.002561 0.001068 0.002360 0.000735 0.000165 -0.002815 0.001733 -0.003403 0.000976 -0.000587 -0.000748 -0.002590 -0.001470 0.002015 0.002364 0.002320 0.001248 0.001207 -0.002971 -0.003200 0.003883 0.002970 0.002414 -0.000472 0.003137 -0.000387 0.000574 -0.000117 -0.002331 0.001025 -0.001045 -0.002989 0.003714 0.003421 -0.000856 -0.000177 0.000398 -0.002842 -0.003131 0.003558 0.000049 -0.002017 -0.002377 -0.002403 0.001326 0.000157 0.001040 -0.003292 -0.002975 -0.000102 0.000893 0.001992 -0.002477 0.003187 0.000724 0.000875 -0.000475 0.002333 -0.001787 -0.001639 0.001686 -0.000588 0.000805 0.001410 -0.003194 -0.001549 0.002276 0.003306 0.003072 -0.002380 -0.001647 -0.000710 0.001564 -0.002960 0.002342 0.002178 -0.001249 -0.001212 -0.001749 0.003304 0.003056 -0.000922 0.003293 0.003766 0.001418 0.003893 -0.002431 -0.001197 -0.001646 -0.002271 0.002199 0.001234 0.000332 -0.001714 0.001191 0.002390 0.000151 0.001781 -0.003869 0.003371 0.000375 -0.001431 -0.001628 -0.000584 -0.002293 -0.003414 -0.002216 0.003341 -0.001383 -0.002093 0.001810 -0.001331 0.003716 -0.001254 -0.003585 0.002122 -0.000058 -0.002726 0.000762 0.001127 -0.000376 0.001425 -0.003092 0.000688 0.001419 
318 -0.499617 -0.322156 -0.084908 0.092003 -0.131407 -0.442949 -0.124387 0.080340 0.032245 -0.484667 -0.118983 -0.153421 -0.025873 -0.320047 -0.385766 0.332658 0.264392 0.230198 -0.191218 0.347901 -0.214111 0.093622 -0.597678 -0.369221 -0.022773 0.164254 -0.036721 0.577026 -0.078363 0.039064 -0.170546 0.089691 -0.246763 -0.489070 0.184198 -0.258002 0.081205 0.508879 0.301008 0.058071 -0.029896 0.052234 -0.448236 -0.132199 0.301171 -0.626908 0.198039 -0.283473 -0.079958 -0.015770 -0.141720 0.073802 -0.192307 0.137712 0.015609 -0.225396 0.062639 -0.157509 0.104764 0.101268 0.463491 -0.429634 -0.622461 0.143426 0.300701 -0.031599 0.234343 -0.004436 0.284514 -0.024204 0.188326 0.141034 0.032184 -0.278718 0.368679 -0.136539 0.145457 0.150999 0.342589 0.478756 -0.184219 -0.082445 -1.028381 -0.045886 -0.121262 0.075527 -0.319889 0.007493 0.873155 0.158289 0.234457 0.030743 -0.190240 0.185547 0.141363 0.612285 0.045841 0.232991 -0.330832 -0.436120 0.004053 0.685832 0.250823 -0.051037 0.124857 -0.191791 0.192191 0.022487 -0.371440 -0.087042 -0.047651 -0.228432 0.271809 0.070085 0.099324 0.277085 0.114943 0.203321 -0.113204 0.034072 -0.497195 -0.514110 0.161505 -0.391162 0.238865 0.068792 -0.047440 -0.238222 
356 -0.488913 0.086297 0.417044 -0.221248 0.103489 -0.270970 -0.165980 0.058946 0.278061 -0.063970 0.061640 0.139815 0.151595 -0.136779 0.048118 0.466044 0.500098 0.053886 0.258611 -0.251058 -0.206234 0.184097 -0.450790 -0.360513 0.034062 0.196204 0.157489 0.240612 0.136304 0.388361 -0.122372 -0.267137 0.081431 -0.522391 0.470898 -0.226000 -0.151181 0.170130 0.173895 -0.255209 -0.176240 0.129997 -0.222105 -0.064648 -0.122708 -0.203270 0.233301 -0.008698 -0.144200 -0.301363 0.233579 0.053854 -0.253266 0.355745 0.131962 0.239971 0.197122 -0.030338 0.127342 0.675820 0.625561 -0.663348 -0.130285 0.083762 0.027761 0.144835 -0.196938 -0.467672 0.217490 0.346116 0.341751 0.407383 -0.272205 -0.284364 0.028374 -0.110304 0.432231 0.691595 0.508659 0.456362 -0.333708 0.271810 -1.369967 -0.207862 0.079245 -0.161433 -0.376419 -0.098201 1.011591 0.290151 -0.162301 -0.041444 0.045948 -0.620074 0.266887 0.317341 -0.334422 0.153097 0.152284 -0.622897 -0.269521 0.466328 0.215869 -0.307337 0.210259 -0.099112 0.197086 0.200984 -0.089830 0.295902 -0.236386 -0.428094 0.315649 0.023830 0.129018 0.297488 -0.093877 -0.032811 -0.436488 0.348462 -0.097312 -0.208738 -0.335931 -0.109537 0.247656 -0.221982 -0.091826 -0.693431 
296 -0.348934 -0.110991 -0.244518 0.165720 0.255715 -0.196906 -0.165384 -0.472588 -0.188005 -0.299443 -0.052462 0.134775 0.060478 0.151529 -0.156014 0.310287 0.042535 0.046126 0.110351 0.489615 -0.122117 0.030869 -0.546374 -0.114376 -0.206183 0.349052 -0.147913 0.073752 0.211500 -0.108087 -0.209115 -0.006218 -0.124318 -0.114553 0.117953 -0.424327 -0.336074 0.667324 0.168532 -0.462200 -0.039932 0.042103 -0.024057 0.027599 0.323492 -0.821718 -0.176027 -0.224005 -0.274419 0.057507 -0.212525 0.116154 -0.290624 0.324842 -0.244566 0.212049 0.111852 0.078816 0.038245 0.199556 0.460065 -0.668420 -0.349070 0.443862 0.180556 -0.091397 -0.218838 -0.011235 0.079869 0.371541 0.201008 0.455074 -0.000314 -0.018410 -0.304570 -0.134815 -0.116951 0.120467 0.317954 0.292550 -0.372042 0.132046 -0.727946 -0.217245 -0.257400 0.114924 0.136272 0.067528 1.130086 -0.028919 -0.021937 -0.141018 -0.467209 -0.352078 0.460294 0.301673 -0.130995 0.409785 -0.047656 -0.619413 -0.165216 0.322708 0.345907 0.127042 -0.077904 0.472869 0.239852 0.190658 -0.287210 -0.030319 -0.036766 0.250545 0.108638 0.349789 0.137666 0.261330 0.228540 -0.332465 -0.580333 0.185611 -0.372440 -0.160151 -0.304945 0.327651 0.229426 -0.071205 0.105054 0.189631 
260 -0.174907 0.410319 -0.027655 0.083057 0.102245 -0.213195 -0.116632 -0.097667 0.459768 0.212853 0.154034 0.100506 0.445914 0.144896 -0.453626 0.267853 -0.157429 0.364321 0.104638 0.219992 -0.059776 0.063296 -0.396070 0.249959 0.215182 0.222500 -0.095040 -0.239004 0.349291 -0.380273 0.231431 -0.056993 -0.234951 -0.002178 0.266979 -0.203415 -0.205823 0.279492 -0.015400 0.227907 0.363199 -0.303534 -0.534018 -0.228816 0.348166 -0.571588 -0.110273 0.072069 -0.113758 -0.225924 0.002574 0.299352 0.043452 -0.659561 -0.120664 0.186910 -0.012559 -0.141915 0.288387 -0.125806 0.243454 0.111064 0.052139 0.078350 0.044947 -0.295307 -0.753575 -0.184250 0.096277 0.562742 -0.003847 0.874449 -0.475007 0.074359 0.223144 -0.305752 0.337536 0.336785 0.149247 0.285651 -0.053482 -0.002215 -1.467185 0.042020 -0.341597 0.060990 -0.038770 0.121201 0.733373 -0.159088 -0.117891 -0.269998 -0.535761 -0.123482 -0.018955 -0.166195 0.044418 0.474243 0.088294 0.077927 -0.524885 0.632562 -0.070057 0.124359 0.618139 0.050317 -0.162532 -0.083726 0.043596 0.040203 -0.067447 -0.396327 -0.047897 0.229059 0.219101 0.496361 0.197833 -0.397520 -0.139988 0.021958 -0.420542 0.107941 0.038350 0.326011 0.237916 0.468534 0.403389 -0.526163 
527 -0.555621 0.103357 0.053029 0.039719 -0.084986 -0.012444 -0.346855 -0.092188 0.106312 0.039964 0.086325 0.011841 -0.077237 -0.170926 -0.052203 0.630024 0.196318 0.455381 -0.014586 -0.384840 -0.361150 -0.066522 0.040310 -0.417469 -0.394053 0.184482 -0.042665 -0.196582 0.087658 0.178118 -0.035992 0.340057 -0.046807 -0.226036 -0.190773 -0.356540 -0.478137 0.014479 -0.198453 0.162923 -0.120713 0.126649 -0.076207 0.201439 0.085570 -0.065903 0.400380 -0.252489 0.150299 0.375861 0.219238 -0.054647 -0.258879 -0.262947 -0.470797 0.157442 -0.005258 -0.027035 -0.167635 0.364157 0.276962 -0.322975 -0.020186 0.469485 0.333661 -0.241062 -0.098201 -0.154973 0.401632 0.328367 0.654621 0.096129 -0.423632 -0.178686 -0.184339 -0.333125 -0.007715 0.153268 0.238740 0.438245 -0.347201 0.208327 -0.922936 -0.266302 -0.263452 0.265127 -0.193235 -0.067579 0.687952 0.479483 -0.113897 0.426073 -0.280511 -0.116240 -0.258075 0.306874 -0.242372 0.074331 -0.054578 -0.230291 -0.512612 0.499102 -0.429309 -0.257717 0.250114 0.313479 -0.114648 0.073009 -0.039572 0.049228 -0.515455 0.111868 0.454759 0.268052 0.153308 0.345190 0.166779 -0.195339 -0.411890 0.141667 -0.189362 -0.216976 -0.136000 -0.001903 0.050713 0.135995 -0.171754 -0.428823 
110 -0.132111 0.294255 -0.205156 -0.002184 0.049313 -0.718619 -0.572579 -0.309095 0.041536 -0.822033 0.310163 -0.139100 0.181143 -0.069878 -0.092718 0.142504 -0.035030 0.354066 -0.020094 0.092456 0.017348 -0.253689 -0.296131 0.248829 0.328296 0.273201 0.003248 -0.396141 -0.043834 -0.113461 -0.311180 0.095592 0.164658 -0.427470 0.525799 -0.105304 0.235363 0.227825 -0.339113 -0.273765 -0.150839 0.186802 -0.263673 0.256955 -0.071160 -0.525223 0.042235 -0.467773 -0.151508 -0.398158 0.000505 0.099075 -0.146709 -0.414742 0.494262 0.326207 -0.126038 -0.117929 0.072040 -0.113535 0.466490 -0.177220 -0.322545 0.466617 0.095062 -0.377082 -0.100309 -0.239340 0.267725 0.344872 -0.135421 0.277338 -0.338853 0.036795 -0.267191 -0.374073 0.108861 0.004660 0.460065 0.342338 -0.009296 -0.250738 -1.525315 -0.378917 -0.152660 -0.388148 0.143702 -0.010961 0.860938 -0.346537 0.123148 -0.163219 -0.319842 -0.112664 0.126816 -0.117532 0.051858 0.136228 0.232667 -0.058465 -0.099924 0.700892 0.613400 -0.131244 0.248234 -0.503069 -0.167794 -0.117856 -0.100216 0.423616 -0.350338 -0.156598 -0.091325 0.012655 0.234969 -0.006907 -0.083609 -0.124273 -0.106366 0.261988 0.143327 -0.051516 -0.115399 -0.069886 0.096327 0.148568 0.032417 0.125719 
50 -0.181309 0.100882 0.088750 0.354782 -0.046542 0.006162 -0.140154 -0.527108 -0.034411 -0.199200 0.212627 0.019042 0.435397 0.037964 -0.180480 0.378593 -0.265107 -0.310592 0.222971 0.348064 -0.266452 -0.449360 -0.245189 -0.322610 -0.001753 0.058238 0.142435 0.138337 0.109035 0.174613 0.360643 0.097832 0.597082 -0.187457 -0.096435 -0.166678 -0.197256 0.503158 -0.041254 -0.242587 -0.047427 -0.010379 -0.340905 0.567841 0.526283 -0.818237 0.181071 0.066910 0.252226 0.275892 0.106810 -0.032283 -0.397118 0.014687 0.397906 -0.263387 0.118824 -0.195667 -0.084071 -0.173546 0.080614 -0.298218 0.011392 0.584887 0.105912 -0.039584 -0.066221 -0.499717 0.279339 0.441611 0.510944 0.207423 0.157097 -0.170176 0.055868 -0.179187 0.018372 0.272712 0.151200 0.237567 0.113288 -0.285722 -1.115998 -0.202679 -0.315834 0.053844 -0.201538 0.607760 1.054824 0.107528 -0.086297 -0.032880 -0.377134 -0.049560 -0.265239 0.041491 0.310975 0.391715 -0.020714 -0.067203 -0.277900 0.279397 0.350167 0.182686 0.076472 -0.428424 0.259140 -0.002348 -0.074840 0.645783 -0.068012 -0.122060 0.300728 0.072365 -0.079353 -0.017452 0.177304 0.068228 0.094835 -0.116460 -0.062320 -0.125150 -0.556867 -0.054350 0.301862 -0.266199 -0.282293 0.111580 
1198 -0.114040 0.110425 -0.458918 0.305335 -0.072080 -0.285830 -0.150557 -0.786157 0.147990 -0.320633 0.165590 -0.635040 0.648951 -0.176960 -0.034299 0.227074 -0.346876 -0.370694 0.492170 0.280142 -0.087711 -0.135422 0.225041 0.433862 0.014952 -0.251567 0.504218 -0.298650 0.130272 0.183991 -0.584768 -0.289135 -0.274512 0.170861 -0.772946 0.232794 0.163851 -0.114331 -0.189204 -0.056967 -0.287023 0.172354 -0.277248 0.278614 0.307579 -0.282269 0.372774 -0.428352 -0.184654 0.329388 -0.113564 0.292641 -0.385587 0.113602 -0.483907 -0.084986 -0.059183 -0.066236 -0.164422 0.395941 0.228119 -0.285798 -0.561242 -0.553798 0.447969 0.057659 0.261947 0.057678 0.375305 -0.110703 -0.184386 -0.052700 0.161872 -0.175385 0.258500 -0.163565 -0.265404 -0.195398 -0.081251 0.046537 0.006056 0.211447 -1.293691 0.260112 0.166722 0.324487 -0.226098 0.295985 0.481299 -0.333713 0.283505 -0.247377 0.194369 -0.374812 -0.223435 0.564821 0.177881 -0.162611 0.650532 -0.068294 -0.266668 0.800659 -0.322020 -0.225104 0.034657 -0.206048 0.086551 -0.395460 -0.086576 -0.264370 0.266150 -0.030310 0.173075 0.020943 0.135660 0.198763 0.370197 0.325892 -0.216010 -0.181675 -0.128673 -0.367715 -0.075669 -0.024964 -0.113128 0.219311 0.059692 -0.570827 
4993 0.174102 -0.163751 0.035849 0.343073 -0.459279 0.330783 -0.304242 -0.671167 -0.166242 -0.032004 0.049972 0.046561 0.037117 -0.007433 -0.146435 -0.480098 0.318003 -0.078778 0.020638 -0.389093 -1.062709 -0.015278 -0.152523 0.092322 -0.196579 0.063989 -0.452784 0.241495 0.060469 -0.185641 0.250357 0.334193 0.128626 0.225103 -0.247936 -0.264494 0.100624 -0.152065 0.333607 0.221732 -0.105809 0.243131 -0.315868 0.254230 -0.297220 -0.586346 -0.195867 -0.009175 -0.584505 0.269742 0.001290 0.616458 0.193706 0.248135 -0.165415 -0.455870 -0.486547 0.266582 -0.066927 -0.099886 0.594979 -0.103354 0.417380 -0.463441 0.178002 0.019367 0.039971 -0.253378 -0.231460 -0.229465 0.113369 -0.364244 0.403733 -0.467049 -0.199301 0.084232 0.032424 0.553653 0.249906 -0.398936 0.532237 0.129660 -1.174657 0.024463 0.188233 -0.060197 0.008863 0.234597 0.458425 -0.185956 0.534712 -0.064060 0.191880 -0.498291 0.023025 0.109648 0.685087 -0.066593 0.475251 -0.680421 0.475291 0.768425 0.332810 -0.440884 -0.680205 0.482246 -0.626620 -0.295242 0.078100 -0.937031 0.488408 0.377511 0.207677 0.266738 -0.036091 -0.485964 0.174637 -0.127823 0.160851 0.125353 -0.039049 -0.131221 0.432609 -0.387075 -0.045996 -0.366144 -0.032604 0.284720 
2858 0.344805 -0.281450 -0.026292 -0.378163 -0.089543 -0.281035 -0.286545 -0.137967 0.453851 -0.588596 -0.161968 0.585884 0.174323 -0.145388 0.281004 -0.360863 0.538519 -0.046247 -0.096874 -0.161417 -0.180006 -0.213089 -0.097897 -0.110818 0.321555 0.349712 -0.107537 -0.145796 0.132018 -0.473645 0.056174 0.353566 -0.184095 -0.086548 -0.165562 -0.495129 -0.181739 0.014441 0.034051 0.224059 -0.665004 -0.279856 0.152389 -0.410400 -0.350025 -0.046872 -0.548894 -0.042618 0.323518 0.306787 0.320787 -0.384092 0.023928 0.426554 0.213076 0.183205 0.199725 -0.027873 -0.442359 0.095295 0.111071 -0.679476 0.165798 -0.199944 0.005710 -0.454212 0.321459 0.436753 0.067556 -0.150371 0.049544 -0.305706 0.433690 -0.722911 0.135590 -0.251788 -0.341055 0.234638 0.226953 -0.142011 0.122881 -0.471646 -1.189355 -0.647103 -0.184848 0.501274 -0.097888 0.234283 0.887269 -0.668212 0.563774 0.357491 -0.355050 -0.187172 0.011372 0.542370 0.324977 -0.450619 -0.219779 0.512657 -0.029651 0.287226 -0.192984 0.041288 -0.661151 0.331884 -0.192610 0.254661 0.298596 -0.204910 -0.029363 0.331895 0.330295 -0.131523 0.017582 0.245820 0.117319 -0.144131 -0.436096 -0.594792 -0.050567 -0.150303 0.411188 -0.046363 0.245385 -0.757807 0.068161 -0.172975 
2571 -0.455990 -0.331151 -0.419017 -0.087469 -0.139762 -0.080154 0.151807 -0.438972 0.144110 0.461461 -0.061270 -0.470467 0.096726 -0.030866 -0.149336 0.001198 -0.283179 0.463973 0.146518 0.223955 -0.011113 -0.197950 -0.123291 0.159143 0.264518 0.602591 0.212492 -0.417847 -0.069122 0.165916 -0.119684 -0.389520 -0.209681 0.025423 -0.339513 -0.441244 0.126789 -0.240039 -0.276581 -0.416497 -0.277944 -0.244075 0.263569 0.332281 -0.584038 -0.002707 -0.484024 0.364044 0.235501 -0.128142 -0.580577 0.623246 0.434342 -0.196554 0.274863 0.392664 -0.282743 0.510688 -0.925732 0.148426 0.324625 -0.035910 0.205649 -0.344241 0.176309 -0.171571 -0.108197 -0.140918 -0.361524 0.330131 -0.282992 -0.737011 0.180637 -0.625664 0.105411 -0.015419 -0.152521 0.557225 0.299922 0.014921 0.508227 0.411720 -1.379452 -0.130555 0.235486 0.164937 0.521644 0.237242 0.708918 0.008347 0.191012 -0.014709 -0.144612 0.120895 0.622928 0.197316 0.498709 -0.401645 -0.144253 -0.067840 0.284551 0.160350 -0.646216 0.281313 0.086308 0.374955 -0.606857 0.123228 -0.007528 0.090892 0.465127 0.456725 -0.355879 0.212044 -0.267583 -0.157783 -0.053565 0.105238 -0.090009 -0.652481 0.057246 0.066995 0.345637 -0.140143 -0.117343 -0.131388 0.076675 -0.755136 
2959 0.275592 0.126376 -0.430196 -0.312328 -0.616230 0.207952 -0.591050 -0.595129 0.469780 0.412824 -0.074168 -0.309872 -0.075122 0.208678 0.020733 -0.591294 -0.113567 -0.238049 -0.041248 -0.613619 -0.768648 -0.162681 0.248233 0.023581 0.219480 0.497117 0.268728 -0.036283 0.438558 -0.254284 0.110310 -0.132647 -0.133223 -0.187970 0.210375 -0.806267 -0.182033 -0.179199 0.054831 -0.027933 -0.493371 -0.136086 0.034547 0.162988 0.255136 -0.465088 -0.372350 0.124042 -0.071108 -0.196233 -0.032677 0.135048 0.786016 0.358414 -0.239497 0.266516 0.025546 0.228269 -0.507871 -0.039348 -0.229839 -0.160099 -0.005795 -0.150293 -0.032654 -0.214878 0.289167 0.114548 -0.029764 0.071145 0.023951 -0.083963 0.135746 -0.326974 -0.025428 -0.137382 -0.098121 0.351139 0.255518 -0.627527 0.271337 -0.042699 -1.366500 -0.167381 0.450966 0.042439 -0.348265 -0.119354 0.411840 -0.613226 0.598941 0.209680 -0.244175 -0.160290 0.298265 0.683340 0.479750 -0.422005 -0.210140 0.416849 0.281346 0.336805 -0.210176 -0.017857 -0.083237 0.261054 -0.180879 -0.133536 0.006827 -0.192667 -0.396952 -0.021132 -0.199720 -0.273262 0.015760 0.155263 0.190506 -0.267691 0.100544 -0.214267 0.059398 -0.093234 -0.074764 0.589244 -0.074918 -0.527662 0.189878 0.257718 
5952 0.431281 -0.087144 -0.497970 0.046873 -0.413400 0.064558 -0.182588 -0.799665 0.570836 0.522548 -0.044908 -0.274341 0.111031 -0.208250 -0.533703 -0.120445 -0.010078 -0.017679 0.109977 -0.238368 -0.096873 -0.104364 0.295014 -0.030990 -0.285391 0.101420 -0.427933 0.442477 0.130417 -0.630124 -0.037794 -0.074371 0.656046 0.292349 -0.471661 -0.351091 -0.170967 -0.141852 -0.220721 0.374530 -0.289370 -0.044393 -0.211057 0.299228 0.155117 -0.029075 -0.344076 0.392147 -0.361672 -0.277019 0.220133 0.151398 0.454206 0.411055 -0.221890 -0.231857 -0.208729 0.689348 0.097718 -0.455412 0.073603 0.150576 0.032333 -0.456988 0.417562 -0.196281 0.434923 -0.097896 -0.140037 -0.351858 -0.344221 -0.492511 0.084237 -0.365383 -0.358150 -0.348823 0.164335 0.267036 0.391578 0.002622 -0.156368 -0.125148 -1.627763 0.160354 -0.014140 0.102167 0.078511 -0.267878 0.566510 0.237974 0.655816 -0.115846 0.307884 -0.069328 -0.148466 0.020689 0.471819 0.136949 0.069284 -0.784293 0.256170 0.440907 0.264837 -0.676281 -0.223567 0.558931 -0.242841 -0.294098 -0.098965 -0.528430 0.237178 0.123465 0.122197 -0.232718 -0.056579 -0.671145 -0.200015 -0.156454 0.260789 0.112811 0.117756 0.532614 -0.160664 -0.448646 -0.116769 -0.483710 -0.278803 0.272297 
32 0.102616 0.450616 -0.021464 0.472466 -0.002582 -0.635362 -0.071264 -0.855396 0.164029 0.016189 0.300496 -0.278431 0.205539 0.353885 -0.488010 0.205285 0.359727 0.237395 0.386192 0.230884 -0.039828 -0.632727 -0.270632 -0.107499 0.221251 0.297068 -0.093267 -0.427125 -0.193727 0.133295 0.231700 0.521135 0.250501 -0.147368 0.383094 -0.409535 -0.367018 -0.161695 -0.070583 0.016559 0.288429 0.118100 -0.367634 -0.064689 0.218276 -0.276424 0.030054 -0.119542 0.187931 0.245030 0.018954 0.635910 0.339218 -0.737686 -0.112581 0.302027 -0.155030 -0.229675 0.081403 -0.516049 0.201255 -0.381749 -0.675045 0.134905 0.237325 0.109811 -0.464244 -0.593844 0.253559 0.271944 0.057729 0.041132 -0.259997 0.122229 -0.075768 -0.197032 0.072455 0.237783 0.444168 0.193227 0.183244 -0.100951 -1.108329 0.066276 -0.477920 0.450029 -0.164325 0.009475 0.950240 -0.179117 0.087567 0.174880 -0.162608 -0.525503 -0.062493 0.017781 0.180150 0.115167 0.007752 0.096164 -0.047678 0.229720 -0.044901 0.305112 0.286943 -0.211907 -0.028893 -0.250248 0.076259 0.202374 -0.649475 -0.344536 -0.024581 0.448622 0.241756 0.282927 0.317171 0.006340 0.336723 -0.069131 0.226751 -0.174551 -0.153340 0.040151 0.403275 0.122818 -0.371294 -0.080710 
593 -0.577332 -0.253685 0.033709 -0.334116 -0.128218 -0.416266 -0.298611 -0.245908 -0.352745 -0.180973 -0.113570 -0.263184 -0.052279 -0.422874 -0.057856 0.725527 -0.177855 0.515006 0.463614 0.386926 -0.073133 0.073005 0.240568 -0.559548 0.123249 -0.084668 -0.077204 -0.225836 0.087358 0.367836 -0.109508 -0.042962 0.123009 0.195942 -0.115834 -0.612761 0.015595 0.395574 0.083213 -0.178279 -0.113827 0.384772 -0.481111 -0.195236 -0.084428 0.058341 0.202104 -0.036989 0.186557 0.180833 -0.251198 -0.028819 -0.341545 -0.232547 -0.579382 -0.182437 -0.175490 -0.265711 0.093000 0.376363 -0.162058 -0.392296 0.120273 0.232300 0.355370 -0.317820 -0.117194 -0.139816 0.644390 0.432144 0.439621 -0.140218 -0.501628 0.058247 -0.226648 -0.342833 0.476660 0.225532 -0.127127 0.178969 -0.379813 0.292511 -0.984896 -0.387330 -0.110799 0.406293 -0.184843 0.087611 0.725394 0.396802 -0.174344 -0.008907 -0.194181 -0.447054 0.165120 0.452485 -0.172244 -0.227810 0.349784 -0.784835 0.150581 0.542156 -0.289368 -0.289532 0.292826 0.317605 0.235943 -0.188017 0.401504 0.017728 -0.034676 0.026316 0.606325 0.229459 0.387305 0.810079 0.231590 -0.515360 -0.713515 -0.174366 -0.061940 0.003211 0.254052 -0.046354 -0.208349 0.222283 -0.258348 -0.221341 
7153 0.597722 -0.215572 -0.192683 0.468022 0.095989 0.456433 -0.598858 -0.724903 0.410560 0.506144 -0.274634 -0.032562 0.094107 -0.363637 -0.449137 -0.339871 0.327454 0.070656 0.347629 -0.460998 -0.061833 0.209097 0.125802 0.128816 -0.298525 0.589392 0.096104 0.143500 0.273322 -0.463759 -0.282832 -0.324529 0.535077 0.533127 -0.900493 -0.659032 -0.354998 -0.161206 -0.227866 0.225873 -0.306985 -0.228725 0.093556 0.180103 0.034320 -0.259704 0.277566 0.050084 -0.307722 0.068594 -0.348804 0.621606 0.718034 -0.171914 -0.246069 -0.434199 -0.249030 0.755659 0.378194 0.011414 0.086793 0.108602 0.497683 0.134592 0.575969 0.246881 0.230454 -0.270053 0.313989 -0.083872 -0.232542 -0.233588 0.281221 -0.669879 -0.171299 -0.411868 0.197636 0.461978 -0.041191 -0.041929 -0.004249 0.298078 -1.185654 0.029706 0.109040 0.009979 -0.102774 0.412741 0.563980 0.056429 0.718076 0.105698 -0.168135 -0.203730 -0.166712 -0.125509 0.096403 0.144722 0.415831 -0.334394 -0.075601 0.482058 0.154420 -0.757477 -0.462081 0.023253 0.016268 -0.155853 -0.166640 -0.703634 0.021385 -0.027331 -0.232793 0.539084 -0.048765 -0.675968 0.276490 -0.253749 0.134289 0.382315 0.244226 0.065870 0.495079 0.038673 0.073347 -0.301302 -0.035266 0.128550 
1196 -0.032074 0.331945 -0.080606 0.224503 0.322472 0.035549 -0.480733 -0.761828 0.065073 0.087616 0.024247 -0.403017 0.182939 -0.461925 -0.257882 0.072468 -0.023976 -0.413906 0.586106 0.605940 -0.081785 0.215579 0.053122 0.565979 0.225492 0.075168 0.301279 0.011295 0.432192 0.332760 -0.448100 -0.349270 -0.180825 -0.014864 -0.112303 -0.200933 0.217122 0.289707 0.348071 0.045834 -0.391162 0.800011 -0.636567 -0.459252 -0.025973 -0.524258 0.255569 -0.014369 -0.169023 0.346191 0.286097 0.085694 -0.241589 -0.014435 -0.262878 0.200571 -0.351113 0.018732 0.003885 0.333239 -0.066743 -0.309062 0.288026 0.208215 0.165719 0.289786 -0.058802 0.064875 0.452079 -0.307530 0.161965 0.059766 0.250405 -0.401689 0.015924 -0.515502 -0.026492 0.165781 -0.104765 -0.272860 -0.331389 0.056316 -1.268365 0.363163 0.134767 0.358081 -0.165111 0.280827 0.272449 -0.363647 0.518287 -0.232848 0.333527 -0.072165 -0.481554 0.383294 -0.076852 -0.259518 0.629446 0.142680 -0.132074 0.555851 -0.604021 -0.444042 0.117597 -0.443419 -0.327921 -0.111923 0.230977 -0.316155 0.433862 0.129119 0.115091 0.246884 0.464849 0.436900 -0.015483 0.498528 -0.466458 0.098058 -0.504114 0.033454 0.310026 0.267609 0.230367 0.083995 -0.252821 -0.421517 
1 -0.077500 0.445013 0.069466 0.332567 0.135053 -0.286517 0.153854 -0.515946 -0.049518 0.110399 0.442177 -0.172535 0.483613 -0.325306 -0.260800 0.305437 0.192983 0.150595 0.147311 0.129119 -0.370658 -0.097733 -0.181894 -0.409590 -0.006130 -0.022525 0.070064 -0.326762 -0.076208 0.127229 -0.322974 0.006694 0.199697 -0.002170 0.549524 -0.186250 0.153220 0.212465 -0.102653 0.029644 0.022864 0.102433 -0.193108 0.325725 0.069644 -0.065421 0.014719 -0.218027 0.437609 -0.174576 -0.187165 0.108691 -0.210020 -0.238962 0.249784 0.035482 -0.243477 0.154656 -0.020747 -0.185765 0.144531 -0.042657 -0.879224 0.401212 0.415623 0.047788 -0.574710 -0.137675 0.757990 -0.005475 0.106095 0.341734 -0.310147 -0.084659 -0.001015 0.027164 0.030088 0.394857 -0.244604 0.742039 -0.182951 -0.143049 -1.233930 0.276217 -0.348813 0.110239 -0.075890 0.077289 0.531500 -0.117859 -0.160634 -0.170373 -0.313277 -0.274883 -0.353702 -0.236778 0.100855 0.136124 -0.034935 -0.252936 0.434065 0.445048 0.382944 0.206687 0.142348 -0.241880 0.169266 0.010698 -0.127384 0.534472 -0.055187 -0.031458 0.417027 0.030350 0.238344 0.334436 0.085817 -0.160322 -0.301549 -0.046296 0.029415 0.226576 0.077743 -0.253978 0.263826 -0.139182 -0.112742 0.175948 
608 0.130134 0.159627 -0.015664 0.179469 0.478164 -0.253126 0.097271 -0.876206 -0.047093 -0.575301 0.555706 -0.764171 0.275764 -0.583278 -0.478914 0.067663 -0.233042 0.492865 0.389194 0.124597 -0.084903 -0.616736 -0.016716 -0.073347 0.312567 0.169833 -0.393328 -0.251690 0.014705 0.004855 -0.351397 0.440561 0.104721 0.357867 -0.160476 -0.510316 0.293142 0.321987 -0.326463 -0.126450 -0.032970 0.049610 -0.009908 -0.312206 -0.087836 -0.002182 0.723585 -0.410017 0.006678 -0.087398 -0.248402 0.078104 -0.122605 -0.427210 -0.886453 -0.221947 -0.441022 0.224351 0.024604 0.460368 0.136416 -0.282368 -0.250713 -0.216924 0.422072 0.020384 -0.535345 -0.317782 0.750774 0.227290 0.629071 0.002649 -0.602068 -0.114332 0.727345 -0.123191 0.467348 0.211879 0.164686 0.315666 0.215876 0.076285 -0.851956 0.142430 -0.389420 0.335069 -0.188304 -0.068970 0.898859 0.484270 -0.810441 0.088288 -0.284889 0.086534 -0.027508 -0.034639 -0.316858 0.507457 0.243928 -0.656699 0.263503 0.582584 0.166979 -0.141020 0.048666 0.572051 -0.062423 -0.059769 0.316455 0.000508 0.012671 -0.137090 0.320985 -0.183049 -0.198277 0.356103 0.417220 -0.439228 -0.615456 -0.093302 0.249248 0.278042 -0.193965 -0.405502 -0.353693 -0.473361 -0.296812 -0.317018 
858 -0.013393 0.302515 -0.173694 0.010504 -0.103813 0.105026 -0.285046 -0.866146 0.217706 -0.230478 0.192019 -0.422186 0.108005 -0.495581 -0.263327 0.169230 -0.191963 0.302361 0.329023 0.352632 0.103784 -0.230157 0.552202 -0.291266 0.405689 -0.616395 0.518518 -0.298240 0.266348 0.709462 0.103576 0.592321 0.259522 0.169876 0.301421 -0.339822 0.162419 0.475056 -0.545271 -0.429566 -0.343150 0.270892 -0.136264 -0.274692 0.273770 -0.063213 0.472749 -0.225438 0.144364 0.176021 -0.354166 -0.050772 0.196600 -0.221048 -0.400490 0.344288 -0.319172 0.081467 -0.121691 0.762791 0.411361 -0.410165 -0.504165 -0.264258 0.312862 -0.272714 0.035687 0.073629 0.533168 0.497636 0.281714 0.020702 0.115508 0.037073 -0.255938 -0.133609 0.239744 0.320375 -0.188924 0.276248 0.212537 0.044546 -1.154245 -0.564032 0.053155 0.660695 -0.215234 -0.376381 0.710697 -0.255367 0.044009 0.492912 -0.293639 -0.380262 -0.174686 0.316491 -0.140932 -0.076861 0.170114 -0.464801 -0.187430 0.403731 -0.275999 -0.091302 0.526882 0.170827 -0.074319 -0.064950 0.190006 -0.013650 -0.248671 -0.418951 0.299724 -0.143264 -0.379831 0.591767 -0.317595 -0.299995 -0.049297 0.385929 0.805158 0.235357 0.036902 -0.038839 -0.197257 -0.381992 0.123843 -0.431204 
457 -0.042208 0.108333 0.033191 -0.128311 0.317050 0.081877 -0.152976 -0.151409 0.057649 -0.148031 -0.128665 -0.036576 0.108982 0.089227 -0.338833 0.470368 0.319947 0.366483 -0.044319 0.128711 -0.335405 -0.235178 -0.564899 -0.238246 -0.509088 -0.020320 -0.296851 0.012078 0.299851 0.228118 -0.329696 0.052886 -0.218819 -0.297988 -0.034199 -0.394460 -0.068408 0.130728 -0.117538 -0.038550 0.269608 0.040198 -0.025419 -0.365506 0.282349 -0.193055 0.039948 -0.194842 0.327973 -0.193823 -0.040273 0.133387 -0.032743 0.268633 -0.464473 0.253909 -0.148068 -0.061351 -0.049752 0.186427 0.294142 -0.575688 -0.543103 0.105965 -0.211114 -0.135707 -0.335132 -0.236702 0.620587 -0.098672 0.718984 0.233547 -0.296465 -0.324412 -0.126224 -0.144579 0.017357 -0.086722 0.253773 0.442923 -0.354861 0.199986 -1.199664 -0.268942 0.316692 0.120343 -0.431866 -0.292597 0.834092 0.482852 -0.340797 -0.032901 -0.251964 -0.229761 0.254308 0.435459 -0.110929 0.199059 0.058020 -0.820145 -0.075842 0.462928 0.149613 -0.147774 0.153678 0.027897 0.234945 -0.076604 -0.223630 0.053660 0.276407 0.021790 0.703760 0.196760 0.166052 0.359726 0.074784 -0.147574 -0.688246 -0.162601 -0.082270 0.189231 0.208266 0.215125 0.245580 0.196908 0.009494 -0.303150 
1210 -0.280096 0.000068 -0.588781 -0.686593 0.159183 -0.064408 -0.256806 -0.765874 0.121726 -0.082143 -0.027347 -0.161340 0.277454 -0.260076 -0.134322 0.042034 -0.598448 -0.475332 0.845802 0.583691 -0.703424 0.244956 0.278368 -0.005772 0.109629 -0.141141 0.185790 -0.029726 0.292012 0.130117 -0.173767 -0.328843 -0.458846 0.106985 0.084684 -0.220530 0.189422 0.192044 0.174264 -0.078998 -0.321043 0.097218 -0.846468 0.168104 0.059743 -0.712613 0.000522 0.213039 -0.407255 0.521585 0.405547 0.033401 -0.077545 0.519169 0.084024 0.032148 -0.545490 -0.068298 -0.401463 0.268701 -0.224451 -0.249146 0.528323 0.015687 0.615634 -0.132881 0.184008 -0.111632 0.074716 -0.449030 0.294937 0.676796 -0.019053 -0.134077 0.098021 -0.507761 -0.045647 -0.189242 -0.064916 -0.014125 0.057897 0.305201 -1.361561 0.275124 0.048230 0.126282 0.073972 0.175815 0.277960 -0.122999 0.283922 0.111111 -0.051577 -0.240667 -0.215185 -0.020587 -0.263819 0.083669 0.827957 -0.361499 0.194652 0.549095 -0.227199 -0.057859 0.054408 -0.102406 -0.044754 -0.390669 0.088937 -0.188986 0.725995 0.588768 0.196676 0.251794 0.407792 0.135718 0.459039 0.098438 -0.524211 0.303531 -0.328851 -0.273649 0.288281 -0.062977 0.160033 -0.032194 -0.349845 -0.381877 
480 0.002767 0.059038 0.421743 0.079779 0.340809 -0.253341 -0.051004 -0.384033 0.234751 -0.139848 -0.152013 0.170180 -0.124609 0.211839 -0.142370 0.314499 -0.029362 0.153578 0.109970 -0.171728 -0.203604 0.069402 -0.157992 -0.042545 0.248532 -0.046095 -0.419419 -0.125109 0.425279 0.456883 -0.659072 0.039460 0.343613 -0.488436 -0.164186 -0.518687 -0.097190 0.314735 -0.290148 -0.445109 -0.193858 0.024849 -0.386929 -0.255870 0.161699 0.537973 0.257821 -0.082998 -0.139335 0.211981 -0.433382 0.097065 0.008627 0.079163 -0.706274 0.082202 -0.017292 -0.019737 -0.031187 0.516123 0.569384 -0.355298 -0.196437 0.038605 0.220269 -0.103100 0.053616 -0.353204 0.339475 0.088117 0.354306 0.432582 -0.151730 -0.794247 0.233519 -0.189318 -0.089692 0.393188 0.011462 0.468404 -0.531784 -0.153935 -1.471058 -0.221914 0.015936 -0.162554 -0.310566 -0.147327 1.064523 0.302273 -0.118212 0.025580 -0.304336 -0.332264 0.628079 0.155701 0.295366 0.079170 0.089841 -0.276699 -0.379241 0.149669 -0.353886 -0.213529 0.202038 -0.046171 0.253408 0.163962 -0.290322 -0.021276 -0.551255 0.010830 0.339638 0.123764 -0.057330 0.579613 0.390002 0.059647 -0.077525 0.237889 -0.105775 -0.013136 -0.138564 -0.017429 0.160046 0.292458 0.119415 -0.428541 
778 -0.445928 0.147013 -0.117746 -0.218102 0.254446 -0.181404 0.034134 -0.840281 -0.223120 0.385369 0.270968 -0.265708 0.365279 -0.392036 -0.095950 0.353440 0.364543 0.011748 0.451787 -0.152099 0.182986 0.186029 0.049936 -0.092362 0.245956 -0.203009 0.628757 -0.272985 0.104455 0.452183 0.092405 0.738051 -0.141467 -0.492105 -0.378391 -0.804469 -0.144611 0.114485 -0.268295 -0.328874 -0.161543 0.091297 -0.131565 -0.609312 0.409218 -0.159883 0.292122 -0.485944 -0.056897 0.151243 -0.300521 0.037332 -0.204474 -0.302293 -0.469281 -0.193265 -0.238812 0.285421 0.073147 0.131855 0.011089 -0.602096 -0.277235 -0.098034 -0.217008 -0.230797 0.254235 -0.131992 0.028922 0.335756 0.221482 0.580223 -0.303543 0.240368 0.874516 -0.399570 0.176608 0.381758 -0.111409 0.099651 0.693224 -0.377327 -0.719556 -0.521836 -0.147725 0.135005 0.082339 -0.095490 0.398723 0.490927 0.045695 0.366171 -0.049349 -0.240114 0.212498 0.544509 -0.031380 0.099222 0.293840 -0.717526 0.042272 0.332418 -0.029798 0.120424 0.547411 -0.037953 0.337923 0.274733 -0.074426 0.080326 -0.032504 -0.289235 -0.221366 -0.297478 -0.601950 0.458303 0.315336 0.055271 -0.263718 0.125804 0.392454 0.307497 -0.144685 -0.124579 -0.235959 -0.298096 0.039809 -0.028917 
1270 0.276468 -0.350660 -0.136474 -0.649133 -0.001481 0.386569 -0.378465 -0.606121 -0.204960 0.097440 0.218467 -0.371408 0.083379 -0.258239 0.315432 0.550688 0.093340 0.579082 0.559626 -0.088398 -0.595336 -0.057279 0.844634 -0.537765 -0.674189 -0.524991 0.088636 0.081483 -0.077059 -0.542915 -0.150378 -0.329988 -0.212782 0.705982 -0.001986 -0.523919 -0.295981 0.396538 0.245751 0.506261 -0.456484 0.457305 -0.085842 0.534162 0.497524 -0.250062 -0.379731 0.005495 0.053881 0.673288 0.239283 -0.144618 -0.219770 0.568462 -0.118050 -0.343099 0.037548 -0.217080 -0.256697 -0.308869 -0.260181 -0.612695 0.053036 -0.267264 0.012748 0.030972 0.308511 0.504379 0.444032 -0.584059 0.131068 -0.232753 0.052458 -0.228406 0.427928 -0.833524 -0.005840 -0.113610 -0.360918 0.262472 -0.445137 0.235574 -0.872699 -0.315935 -0.061150 0.442319 -0.288999 0.402628 0.784331 0.508835 0.293076 0.257829 0.411182 -0.583945 -0.431133 -0.244396 0.159731 0.021349 0.014517 -0.188311 -0.258290 0.348729 0.137686 -0.158809 -0.205054 0.561794 -0.044705 0.212320 0.415709 0.885368 0.208270 1.092615 0.105446 -0.112953 0.328663 -0.235847 0.358839 -0.355527 -0.416425 0.173089 -0.443182 -0.022507 -0.575679 0.141069 0.431863 0.273016 -0.089833 -0.252479 
541 -0.198650 0.300103 0.021827 0.048204 -0.023272 0.128111 -0.524522 -0.436188 -0.268458 -0.282447 -0.144779 0.096512 -0.163773 -0.249458 -0.501667 0.271328 0.237067 0.358127 0.142055 -0.146866 0.170920 -0.091885 0.021525 -0.065143 -0.049277 -0.207396 -0.124205 -0.273238 0.415589 0.614136 -0.026229 0.340510 0.393642 -0.040060 -0.281074 -0.276937 -0.523325 0.509405 0.222305 -0.073694 -0.011242 0.184852 0.029603 -0.519956 0.155454 -0.232945 0.433323 -0.450113 0.073469 -0.137736 -0.081238 -0.348430 -0.293505 -0.157889 -1.071331 0.173432 -0.517446 -0.146308 0.024438 0.058243 0.041875 -0.669287 -0.474417 -0.010782 0.107464 0.170522 0.202804 -0.047811 0.488085 0.190008 0.154099 0.483708 -0.340550 -0.388412 0.168158 -0.524657 -0.243222 0.155612 0.232614 0.507310 -0.232438 0.288782 -1.182756 -0.342319 -0.204110 0.066454 -0.006151 0.035292 1.121058 0.109602 -0.204006 0.065902 -0.405362 -0.629346 -0.410857 0.869432 -0.035553 -0.076142 -0.240931 -0.242681 -0.411046 0.484630 -0.277011 -0.343969 -0.027973 0.124420 0.247427 -0.349308 -0.271558 0.241374 0.064167 0.288303 0.524819 -0.035095 0.102314 -0.047684 -0.183551 0.072099 -0.512233 -0.083000 -0.117331 0.169894 -0.143477 0.187090 0.376706 0.457544 0.106888 -0.106682 
589 -0.187599 -0.043763 0.255770 -0.231593 -0.165544 0.101630 -0.408869 -0.385366 0.330620 -0.268169 -0.091524 -0.405414 0.196547 0.027679 0.168956 0.303295 0.016628 -0.004022 0.188440 0.079213 0.080845 -0.023728 0.010143 -0.076420 -0.283172 -0.303229 -0.311857 -0.296246 0.075278 0.177586 0.275600 -0.193201 0.229972 -0.461903 0.058857 -0.597479 -0.144712 0.255188 -0.094408 -0.178221 0.370335 0.365554 -0.036784 -0.547755 0.182419 -0.247902 0.681502 -0.356632 0.354306 -0.189949 -0.429836 0.237888 -0.179225 -0.029114 -0.459440 0.397828 0.206948 0.223768 -0.238343 0.149802 -0.000561 -0.473436 -0.808667 -0.439505 0.347530 -0.186288 -0.008620 -0.200280 0.588501 0.262845 0.350960 0.145465 -0.158570 0.163813 0.438882 -0.435400 0.161730 0.089854 0.194052 0.044582 0.014980 -0.391529 -0.767548 -0.134560 0.016221 0.209537 -0.374578 -0.112581 0.542536 0.356136 0.209623 0.169395 0.200301 -0.797209 0.187057 0.322261 -0.056539 0.016487 -0.397457 -0.629002 0.038864 0.263053 -0.594266 -0.055319 0.235242 0.199701 0.084891 -0.232642 0.185023 -0.068127 0.146361 0.250636 0.579078 0.049999 0.362428 0.218001 0.040377 0.007765 -0.230503 -0.166103 -0.155300 -0.344070 -0.095121 0.046232 0.221627 0.057035 0.464319 -0.881630 
47 -0.252184 0.506605 -0.092692 0.540040 0.422955 -0.539229 -0.117004 -0.375649 0.070725 -0.135945 0.460006 -0.123622 0.351342 0.002565 -0.429207 0.366354 0.160229 0.083652 0.366917 0.032865 -0.157789 -0.415581 -0.474130 -0.085960 0.252617 0.044974 -0.133923 -0.429711 -0.037635 -0.211341 -0.162259 0.176898 0.405976 0.031437 0.234837 -0.167387 -0.333562 0.465328 0.090050 -0.102061 -0.179200 -0.065531 -0.202973 0.736436 -0.175785 -0.226711 0.073784 -0.161059 0.005618 -0.187006 -0.167630 -0.016692 -0.377171 -0.236673 0.014627 0.162644 -0.059989 0.162063 0.038923 -0.414321 0.159523 0.174398 -0.388949 0.447914 0.181664 0.338008 -0.431646 -0.112183 0.351216 0.165757 0.127932 0.308614 -0.316085 -0.329972 0.197919 -0.041682 -0.320846 0.597277 0.343007 0.832512 -0.204365 0.011576 -1.420122 0.394004 -0.493131 -0.177112 0.060414 0.127121 0.914457 -0.029869 -0.229788 -0.219642 -0.439480 -0.410192 0.076640 -0.031319 0.216317 0.487904 0.036211 0.170419 0.042453 0.431506 0.307024 0.006498 0.056568 -0.313164 0.232344 0.122046 -0.385060 0.558280 -0.547544 -0.053582 -0.227030 -0.027396 0.080425 -0.091352 0.082128 0.000137 0.049834 -0.075512 -0.216865 0.112587 -0.259426 -0.250823 0.245091 0.037591 -0.394719 0.057072 
2028 0.270154 -0.143050 -0.044359 0.009612 -0.039450 -0.227862 0.754109 -0.171311 0.248541 -0.111944 -0.259107 -0.242918 0.493593 -0.519698 0.030960 0.124132 -0.146537 -0.221445 0.445516 -0.306050 0.501293 0.243543 -0.324363 -0.433807 0.547935 0.057042 -0.202624 -0.261583 0.066192 -0.088812 0.012031 -0.464772 -0.234349 0.313088 0.600340 -0.267417 0.275523 0.064033 -0.214603 0.523930 -0.668569 -0.147027 0.353985 -0.401471 0.136530 0.210383 0.029231 0.239773 -0.057945 0.131614 -0.459799 0.222318 -0.279550 -0.203398 0.571419 -0.578623 -0.447254 -0.276713 -0.264551 0.075363 0.538881 0.112062 0.120010 0.112349 0.138544 -0.243326 0.025103 -0.081348 0.270260 -0.321404 0.063590 -0.755653 -0.610574 0.108391 0.272933 0.178685 -0.480387 0.175004 0.242777 -0.105394 0.191604 -0.179703 -1.540425 -0.123760 0.458553 -0.050602 -0.196168 -0.340696 0.740929 0.128781 0.137237 -0.231210 -0.164623 0.167144 0.307430 -0.341112 0.514306 -0.143249 -0.339179 -0.217574 0.002034 0.633915 -0.136576 -0.217489 -0.053660 0.853708 -0.187264 0.061939 0.182430 -0.244795 0.243302 0.588570 -0.281651 -0.687446 0.623862 -0.293776 -0.445864 0.224334 -0.475946 -1.024094 -0.309282 -0.220791 0.226790 0.117265 0.442076 -0.802517 0.213085 -0.268206 
58559 0.903029 0.114047 0.040368 0.563396 -0.309734 0.453799 0.002111 -0.653379 0.175730 0.110578 0.033947 -0.589141 -0.233128 0.181864 -0.450098 0.245860 -0.096741 0.602573 0.434410 0.162211 0.255173 0.103362 -0.170132 -0.107575 -0.027107 0.347575 -0.293166 -0.370978 -0.027859 -0.494319 -0.591526 -0.085633 0.007603 -0.139188 -0.158804 -0.576498 -0.135601 -0.256993 -0.088449 0.360027 0.185235 -0.543897 -0.550718 -0.032644 -0.187678 -0.270994 0.206156 -0.201591 -0.469678 -0.051017 -0.056460 0.181326 0.160313 0.535013 -0.462303 -0.316263 0.576902 0.482918 0.232502 -0.370554 -0.224538 -0.018152 -0.061638 0.106769 -0.487630 0.634328 0.378003 0.230372 0.217479 0.145651 -0.228380 0.013216 -0.738686 0.023270 0.311042 -0.209458 0.115134 -0.156296 0.199953 -0.089228 -0.201783 0.124647 -1.398797 -0.384274 0.111475 -0.092206 0.197367 -0.319708 0.935528 0.134037 -0.250769 0.284704 0.202041 0.057115 0.260892 -0.293431 0.345026 0.258814 0.210259 -0.043333 -0.308122 -0.019040 0.120554 -0.243962 -0.226017 -0.135108 0.019314 0.643338 0.546080 0.070216 -0.023873 -0.270061 -0.738176 0.044138 0.033078 -0.079725 0.530492 -0.550878 -0.531780 -0.422228 0.140974 0.346863 -0.008942 -0.167552 0.153090 -0.296489 -0.040225 -0.208612 
1704 -0.784186 -0.539857 -0.115729 0.061165 -0.036330 0.196214 -0.307621 -0.870010 0.230355 -0.521835 -0.744235 -0.069536 -0.032788 -0.606493 0.018788 0.730868 0.558133 0.450901 0.053803 0.058879 -0.290987 -0.184477 -0.462643 -1.091152 0.222202 0.141797 -0.251638 0.035980 0.295965 -0.656879 0.744045 -0.282115 -0.203763 0.392089 0.235022 -0.567257 0.335806 -0.088600 -0.209092 0.083600 -0.891782 0.493694 0.181169 0.042052 0.359554 -0.711922 -0.120940 0.195323 -0.265752 0.002981 -0.184681 0.346226 -0.186213 0.353365 0.501450 -0.322296 0.491220 0.031918 -0.550678 0.834083 -0.067589 -0.248739 0.206958 0.127708 -0.572873 -0.184323 0.104545 0.237943 0.156855 0.002388 0.255292 -0.215982 0.148331 0.450226 -0.315007 -0.346498 0.262457 0.124591 0.495942 -0.318100 0.280279 0.194500 -0.657567 -0.742143 0.146859 0.170030 -0.352592 0.371561 0.908947 0.310626 0.287323 0.141905 0.005325 0.622478 0.158368 0.841348 0.227675 0.012669 0.141933 -0.358245 0.228879 0.209379 -0.355110 -0.108714 -0.205769 0.230859 -0.343068 -0.169075 -0.487008 0.258121 -0.306408 0.232592 0.329504 -0.367709 0.435345 0.049329 0.140514 0.486562 -0.480754 -0.243881 -0.075413 -0.067368 -0.082234 0.021654 0.340583 -0.566922 0.073582 -0.120660 
1197 -0.082217 -0.286900 -0.305685 0.375890 -0.171023 -0.081275 0.214332 -1.348874 0.198804 0.110439 -0.499442 -0.576183 0.606066 -0.099632 -0.231976 -0.198537 0.000859 -0.369230 0.190464 0.541618 -0.268039 -0.192465 -0.013201 0.626668 -0.369379 -0.588216 0.246437 0.217232 0.108156 0.002119 -0.245041 -0.387638 -0.250050 0.062815 -0.152861 0.191998 0.212303 0.083410 0.698556 -0.074915 -0.376273 0.269568 -0.046077 -0.335887 -0.045752 -0.217444 -0.017890 0.215810 -0.085053 0.682249 -0.347351 0.077057 -0.608777 0.327452 0.257582 -0.104614 -0.186352 -0.148372 0.200400 0.183413 0.226063 -0.402395 -0.012989 0.054214 0.343751 0.341800 0.229036 0.433997 0.343986 -0.499274 0.031051 0.198621 0.317331 0.247531 -0.207959 0.022835 -0.191082 -0.057076 0.244143 -0.238438 0.232342 0.377951 -1.802813 0.382770 0.200839 0.408611 -0.204534 0.226450 0.226427 -0.452915 0.064700 -0.291284 -0.076594 -0.434407 -0.210402 -0.143379 0.319598 -0.194458 0.411676 -0.362423 -0.106026 0.361893 -0.219881 -0.288234 0.387618 -0.148978 -0.166157 -0.679993 0.198717 -0.367016 0.256868 -0.125456 -0.104205 -0.070468 -0.172889 0.531957 0.352075 0.216519 0.079717 -0.448087 -0.289787 -0.056655 -0.119479 -0.326490 -0.161584 -0.139262 0.144097 -0.295861 
2762 -0.050195 0.142685 0.046030 -0.233211 -0.345222 -0.165311 -0.242324 -0.424508 0.122939 0.146324 -0.634591 0.378747 0.474547 -0.105295 -0.018537 0.144669 0.006990 -0.312429 0.013339 0.066750 0.065114 0.109387 -0.336469 -0.139664 0.164913 0.388451 -0.105910 -0.451249 0.471128 -0.508875 -0.204620 0.322825 -0.099463 0.043513 0.224434 -0.466399 -0.497587 0.084979 0.010465 -0.125311 -0.517875 -0.604920 -0.027323 0.348925 -0.508563 -0.227043 0.032634 -0.194353 0.368174 -0.314895 0.432568 0.236893 -0.290228 -0.199103 -0.058438 0.312085 0.073589 0.117425 -0.326828 -0.023219 -0.139957 -0.329772 0.169167 0.010477 -0.042946 -0.228817 0.370942 0.583933 -0.281043 0.366617 -0.472730 -0.064303 -0.379354 0.038446 -0.101718 -0.274045 -0.342702 0.384154 0.380690 -0.409454 0.288887 -0.189899 -1.554251 -0.198718 0.237575 0.338379 -0.064740 0.383130 0.475021 0.027932 0.892178 0.106613 -0.727974 -0.003614 0.044402 0.784964 -0.038544 -0.056614 -0.119972 0.160969 0.378147 -0.041451 -0.342783 -0.022396 -0.114725 0.600474 -0.485720 0.216684 -0.277744 0.042645 -0.124631 0.553702 -0.485421 0.150799 0.055839 0.001378 -0.555764 -0.094786 -0.101577 -0.353802 0.125504 -0.054713 0.490023 -0.077106 0.154067 -0.405941 0.563439 0.080974 
293 -0.503608 0.053068 0.064239 -0.108658 0.138197 -0.241170 0.219255 0.220463 -0.171388 -0.035761 -0.021233 -0.033000 -0.360867 0.287945 -0.275897 0.219680 0.129206 0.144939 0.071569 0.178634 -0.120689 -0.400425 -0.118178 -0.284344 -0.356282 0.228019 -0.307684 0.071225 -0.112371 0.192102 -0.002543 0.279631 0.130718 0.003880 -0.056501 0.011788 -0.614889 0.511187 0.129477 -0.213556 0.257084 -0.154932 -0.175239 0.203762 0.020115 -0.351384 -0.050014 -0.253444 0.120737 -0.119852 -0.333410 0.217904 0.022382 -0.353140 -0.193946 -0.153777 0.008210 -0.152895 0.109747 -0.099701 0.201441 -0.554897 -0.268984 0.637044 0.247842 -0.180524 -0.083621 -0.148664 -0.276098 0.300215 0.103894 0.515678 -0.525278 -0.394753 0.054377 -0.515663 0.176018 -0.005968 0.556495 0.367050 -0.105590 0.381467 -2.006637 -0.249501 -0.319846 0.617253 -0.522481 0.315494 0.949427 0.032422 -0.289160 -0.069729 -0.482062 -0.115826 0.457998 -0.188544 0.664466 0.276011 -0.234758 -0.559630 -0.218626 -0.077486 0.069697 0.220226 0.181898 0.245535 0.500623 0.201308 -0.179273 0.246526 -0.313594 -0.371607 0.264815 0.111836 -0.107479 -0.018328 0.103573 -0.265544 -0.095619 -0.045924 -0.399489 -0.135835 -0.293248 0.047233 0.169046 0.106869 0.127281 0.272815 
7361 0.195293 0.220494 -0.211529 0.114986 0.123617 0.352530 -0.445066 -0.972241 0.860077 -0.115982 0.198821 0.286606 0.611563 -0.335033 -0.475991 -0.330276 0.000407 0.305362 -0.185494 -0.317399 -0.032567 0.198874 0.557708 -0.133504 0.043146 0.037498 0.082791 -0.020902 0.075685 -0.133408 -0.025341 -0.182819 0.763928 0.017536 -0.754902 -0.182995 -0.232571 -0.127606 -0.440716 0.005289 -0.028257 -0.388066 -0.063074 0.203542 0.118572 -0.087155 -0.521591 -0.221403 -0.465508 -0.372256 -0.206632 0.422783 0.429893 0.267120 0.000808 0.231096 0.105593 0.525960 0.276447 -0.766508 0.241885 0.204729 0.140551 -0.051250 0.289123 -0.042136 0.189665 -0.159717 0.052610 -0.463349 -0.795747 -0.046387 0.126037 -0.236171 -0.108326 -0.838722 -0.390213 0.459028 -0.010588 -0.220816 0.188332 0.418927 -1.809371 -0.139521 0.004891 -0.445333 -0.054818 0.233389 0.298360 -0.310420 0.164747 0.151767 -0.029714 -0.077917 -0.321336 -0.202591 0.765772 0.590353 -0.289710 -0.156628 -0.265389 0.276014 0.308072 -0.554214 -0.235869 -0.167165 -0.334679 -0.251489 0.162293 -0.204419 0.123737 -0.083841 -0.354230 0.063523 -0.574918 -0.613123 -0.215497 -0.498312 -0.038939 -0.130525 0.305400 0.186458 -0.354220 -0.131989 0.025800 -0.414049 0.104989 0.314641 
1291 0.239064 -0.199181 0.206810 -0.313961 0.281604 -0.340792 -0.072630 -0.946094 -0.498623 0.156736 0.248343 -0.514837 0.085944 0.144981 -0.101439 0.150770 -0.139681 0.047639 0.818163 0.054003 -0.474899 0.270759 0.341106 -0.429177 -0.451719 -0.458275 0.124750 0.195986 -0.364798 -0.527144 0.075360 -0.230574 -0.591246 0.386232 0.229149 -0.267744 0.077660 0.235131 -0.448590 0.054857 -0.171064 0.769438 0.079549 0.404312 -0.181598 -0.379703 -0.086570 -0.119762 -0.169685 0.714412 -0.299087 0.474168 0.231011 0.354019 0.269232 -0.395620 0.079573 0.104051 0.094926 0.260760 -0.022324 -0.138229 0.184330 -0.522455 -0.307119 -0.027983 0.102208 0.338637 0.258561 -0.679922 0.348948 0.668429 -0.358064 0.440675 0.307347 -0.874265 -0.183993 0.140240 0.241843 -0.106163 -0.043369 0.139347 -1.489549 -0.145257 0.542048 -0.034506 -0.251008 0.396897 0.637463 0.106042 -0.009404 -0.415220 0.404160 -0.228467 -0.366449 -0.432245 -0.018894 -0.630909 -0.176262 -0.709621 -0.064382 -0.196809 -0.360183 0.088272 -0.382772 0.323265 -0.253161 -0.336017 -0.098076 0.418822 0.227811 0.510211 -0.087660 -0.108727 0.459534 -0.315488 -0.390310 -0.547806 -0.296891 0.288991 -0.220428 0.062574 0.231824 0.119424 -0.140002 0.476960 0.123852 -0.076491 
2918 0.540350 -0.232675 -0.123146 -0.077703 0.004339 -0.418961 -0.478733 -0.671022 0.627773 0.294236 -0.384295 0.162350 -0.282402 0.437232 0.196067 -0.234123 -0.428341 -0.104285 0.217438 -0.219813 -0.010289 -0.090580 -0.631726 0.066367 0.177152 0.089101 -0.002555 0.098811 0.594273 -0.788321 -0.076508 -0.107762 -0.242958 0.328280 0.176053 -0.611862 -0.335861 0.140344 -0.015733 0.208490 -0.290223 -0.129083 0.288953 0.289940 -0.366213 -0.438285 -0.082570 0.029689 0.125043 -0.146553 0.035884 -0.094585 0.311036 0.329852 0.071428 0.291591 0.268702 0.291742 -0.475011 -0.053047 -0.021835 0.213030 0.368162 0.091592 0.125117 -0.288833 0.204388 0.653452 -0.351261 -0.007873 -0.345983 0.217824 -0.279006 -0.390806 -0.273879 -0.180962 -0.280779 0.278995 0.737248 -0.429437 0.406106 -0.076587 -1.626965 0.001482 0.038001 0.021479 -0.449510 0.133018 0.709998 -0.557652 0.425081 -0.179933 -0.254594 0.029557 -0.131948 0.546750 0.049999 -0.336132 -0.116460 0.142228 0.215320 -0.015819 -0.117481 -0.344924 -0.193249 0.066805 -0.018485 0.259530 0.030393 -0.009203 -0.598609 0.310434 -0.111788 -0.250239 0.366339 -0.106659 -0.329411 -0.467055 -0.147855 -0.581815 -0.113541 0.177485 0.213683 0.028894 0.456760 -0.270403 0.338556 0.145287 
150 -0.024389 0.137321 -0.042606 0.339498 0.198368 -0.424658 -0.638514 -0.942569 0.327792 -0.247368 0.198159 -0.411136 0.008486 0.344515 -0.990258 0.581241 0.281145 0.130867 0.721133 0.580228 0.164504 -0.799632 -0.419939 -0.076349 0.080625 0.026534 -0.125773 -0.255513 0.626117 0.088575 -0.007477 0.464111 0.111856 -0.564667 0.680903 0.060126 -0.187382 0.270420 -0.166250 -0.323540 0.373728 0.013525 -0.282879 -0.192144 -0.113793 -0.268561 0.382886 0.289069 -0.186891 0.237951 -0.337594 -0.155747 -0.013063 0.064803 0.123946 0.157923 -0.121144 0.042988 -0.033115 0.226789 0.248637 -0.178178 -0.306380 0.508265 -0.045693 0.010471 -0.293047 -0.180196 0.176124 -0.152498 0.277177 0.054060 0.253719 0.138645 -0.637353 -0.057215 -0.240791 -0.042786 0.737690 0.355867 0.125249 -0.076210 -1.209375 0.072268 -0.083241 0.083578 -0.241771 -0.438025 0.645674 -0.194712 0.268062 -0.293840 0.030342 -0.682760 -0.128052 0.289627 0.274362 0.588079 -0.552836 -0.062363 0.011215 0.091798 0.200557 0.310672 0.093307 -0.169347 0.388503 0.390815 -0.013903 0.224911 -0.030373 0.294905 0.561221 0.343834 0.310735 0.384234 0.509974 0.518220 0.120224 -0.297168 -0.221191 -0.151007 -0.055759 0.110258 0.006149 0.312073 0.029319 0.261126 
4226 0.230193 -0.330107 0.132905 0.317779 -0.412837 0.283606 -0.430593 -0.539310 -0.059513 0.037025 0.282004 -0.064604 0.133769 -0.765595 0.126633 -0.252190 0.362617 0.076596 -0.003702 -0.618483 -0.683285 -0.115961 -0.079913 -0.612314 0.351861 -0.159485 0.150375 0.150263 0.219716 -0.468299 -0.161044 -0.403164 -0.187699 0.077875 0.478532 -0.647775 -0.438745 -0.147538 0.608755 -0.063896 -0.018526 0.506344 -0.154710 0.767743 0.160440 -0.523410 -0.279715 -0.292256 0.105681 -0.542946 -0.013205 -0.029671 0.610695 0.694765 -0.284548 -0.299720 0.430188 0.389412 0.298135 -0.976970 0.688898 0.257922 -0.198530 0.033526 -0.132303 -0.312121 0.138881 -0.402506 0.149825 -0.523884 -0.158625 -0.436612 0.410501 -0.096382 -0.155699 -0.127810 0.260143 1.000601 0.298415 -0.210025 0.069860 0.001550 -1.290051 -0.036293 -0.215065 0.294966 0.073131 0.083259 0.136074 -0.383002 0.145013 0.163297 -0.684696 -0.019620 -0.054694 0.260117 0.375875 -0.279892 0.462632 -0.328553 0.018920 0.338621 0.171753 -0.089469 -0.282194 0.270977 -0.552418 -0.499020 0.078763 -0.813261 -0.002575 -0.067596 -0.288082 -0.437857 -0.217710 -0.140367 -0.389286 -0.645370 -0.525787 -0.108815 -0.029770 -0.103644 -0.042110 0.099343 0.402179 -0.595128 -0.297212 0.099896 
33794 0.567790 0.354012 -0.287933 0.129110 0.073912 0.330164 0.064399 -0.827792 0.359007 0.176418 0.349723 -0.119964 -0.159156 0.083165 -0.051164 0.192644 0.101177 0.205327 0.296094 -0.152246 0.317420 -0.062985 0.305621 0.226968 -0.137063 0.218610 -0.080975 0.235728 -0.173925 -0.747883 -0.523738 -0.293972 0.391072 -0.087836 -0.749917 -0.478696 -0.504034 -0.282887 -0.124482 0.233234 0.345889 -0.079434 -0.322563 0.216034 0.111378 -0.016546 -0.144661 -0.087448 -0.319310 -0.082867 -0.250526 0.371239 0.310311 0.496033 -0.474479 0.072842 0.226827 0.286169 -0.022084 -0.505520 -0.074853 -0.007342 -0.075627 0.168743 0.069147 0.318009 0.600027 0.037928 0.159596 -0.269674 -0.214399 -0.350397 0.366760 -0.595947 -0.028476 -0.596875 0.145531 0.203669 -0.056722 -0.023236 -0.071675 0.081139 -1.640924 -0.149839 -0.154164 -0.167180 -0.081215 -0.401591 0.788824 0.163594 0.453720 0.207233 0.629912 -0.444874 0.212333 0.165922 0.621090 0.151337 0.150159 -0.331314 0.124131 0.317135 0.211103 -0.512101 -0.073511 -0.028076 -0.360917 -0.040384 0.429965 -0.077797 0.150340 0.269565 -0.274095 0.144947 -0.390632 -0.735220 0.106444 0.113180 -0.139657 -0.045344 0.441511 0.213518 0.286170 -0.338314 0.058313 -0.001228 -0.302854 0.133968 
780 -0.306026 -0.055007 0.298672 0.356543 0.259931 -0.003567 -0.097810 -1.456753 0.387265 -0.003953 0.074801 -0.597244 0.551657 -0.354975 -0.327171 0.384301 0.255196 1.029780 0.402171 0.517970 -0.252047 -0.650644 -0.026674 -0.171522 0.398586 -0.021169 -0.202822 0.516019 0.340436 0.345412 -0.088369 -0.111785 -0.294255 -0.037737 0.383245 -0.310699 0.408658 -0.375462 0.349635 0.073207 -0.387356 -0.379650 -0.239069 -0.361178 0.006844 -0.659506 0.332881 0.093332 -0.155468 0.213408 -0.020079 0.649256 0.263306 0.078686 -0.044177 -0.174117 -0.631576 0.328822 0.037377 0.563001 0.121314 -0.643786 0.212530 -0.532444 0.009567 -0.267949 -0.272698 -0.277293 0.552860 0.346789 -0.322158 0.048466 -0.235254 -0.268759 0.265437 -0.276055 0.788146 0.103494 0.101994 0.471183 0.176576 0.391005 -0.817765 -0.092677 0.165095 0.252633 0.108133 0.152709 0.634008 -0.376260 -0.311039 -0.032983 -0.362231 -0.329224 0.283348 -0.399767 0.170658 0.008601 0.361814 -0.167506 -0.036088 0.341541 0.055137 -0.301867 0.319979 0.273882 0.011025 -0.059520 0.199270 -0.177453 0.369586 0.082180 -0.151852 0.325690 0.134005 0.703715 0.556526 0.106503 -0.129750 -0.307597 0.495885 0.360762 -0.137446 -0.789058 0.306259 -0.463797 0.224536 -0.634597 
1265 -0.091477 0.207603 0.002010 -0.338693 0.362373 0.215065 0.038717 -0.972688 -0.329500 0.220877 0.169446 -0.372692 0.288450 -0.224688 0.082776 0.480463 0.265197 -0.252492 0.409095 -0.054253 -0.193675 0.049932 0.269310 -0.252986 -0.149790 -0.253422 -0.110307 0.530915 0.268029 -0.194426 0.498319 -0.382285 -0.128759 0.517694 0.382409 -0.934994 0.261463 0.293574 0.088549 0.353413 -0.328386 0.182589 0.101769 -0.145203 0.634617 -0.008400 0.018213 -0.249320 0.490094 0.370194 0.458263 -0.176704 -0.259609 0.182011 0.215847 -0.626507 0.128922 -0.215592 -0.314215 -0.230280 -0.298773 0.208024 -0.239748 -0.238768 0.100411 0.195055 0.363633 0.243855 0.620950 -0.656507 -0.483802 0.289967 -0.389882 0.034873 0.536176 -0.621997 0.364670 0.016071 -0.306807 -0.081249 -0.141838 0.237187 -1.853557 -0.441288 0.382132 -0.032925 -0.169788 0.042188 -0.194472 0.132747 0.202047 -0.257715 -0.144319 -0.694902 -0.639293 0.339848 0.208680 -0.391149 -0.053366 0.311094 -0.030168 -0.329436 -0.428009 0.048665 0.202589 1.236536 -0.179569 0.099758 -0.187859 0.216541 -0.072075 0.520452 -0.615896 -0.257292 0.193882 0.239765 0.170512 0.371742 -0.117581 0.308271 0.026588 -0.255869 -0.379865 -0.176209 0.255128 -0.024438 0.124146 0.317749 
1136 -0.098577 -0.290305 -0.330466 0.447332 0.205427 0.092827 -0.359561 -1.113146 0.348120 -0.294084 -0.092993 -0.101918 -0.406827 -0.335103 -0.292706 0.160110 0.427846 0.152285 0.245852 0.028193 0.152626 0.307802 -0.120262 0.571192 -0.255127 -0.168140 0.138536 0.118630 0.288677 0.105105 -0.464949 -0.079004 -0.473222 -0.258338 -0.749349 -0.368039 0.472464 0.542500 -0.003593 -0.250199 -0.153024 0.287858 -0.594099 -0.469557 0.157788 -0.366740 0.158745 -0.077747 -0.140636 0.489554 -0.243031 -0.007343 0.072226 -0.577430 -0.070680 0.071299 -0.017776 -0.240604 -0.607739 0.553403 0.601636 -0.425740 0.128599 0.106900 0.262415 -0.416952 -0.052798 0.088758 0.140023 -0.068285 -0.027290 -0.149925 -0.293981 -0.241379 -0.129928 -0.124660 -0.153768 -0.228001 -0.083427 -0.301408 0.212712 0.092406 -1.321186 -0.434277 -0.023021 -0.125715 0.169231 0.356403 0.400360 -0.311286 0.514608 -0.166704 0.013504 0.069889 -0.114128 -0.185927 0.446058 -0.297633 0.308743 -0.378713 -0.151415 0.825744 -0.269758 -0.197480 0.102268 -0.123187 -0.297988 -0.149316 0.433489 -0.392989 0.017001 0.638231 0.266278 0.363681 -0.441083 0.794872 0.533594 0.630097 -0.141256 -0.233732 -0.532612 -0.036629 0.487790 0.015380 -0.133481 -0.128131 0.116778 0.102867 
1259 -0.028260 -0.316903 -0.121618 -0.605193 -0.070511 -0.090760 0.060008 -1.036834 -0.206945 -0.235100 0.063499 -0.350528 0.320403 -0.563686 0.201782 0.347386 -0.032171 0.017092 1.340328 -0.369764 0.043855 0.366901 0.821533 -0.118933 -0.090223 -0.453179 -0.051038 -0.154407 -0.146126 -0.218250 0.196213 -0.643703 0.172596 0.634956 -0.360468 -0.493242 -0.265653 0.325241 -0.137153 -0.111228 -0.745978 -0.179749 -0.253077 -0.317532 0.108972 0.012332 -0.214507 -0.229785 0.445564 0.120039 -0.167972 -0.294016 -0.169459 -0.048493 -0.037090 -0.165491 -0.077662 0.382457 -0.125707 0.099136 -0.135565 0.061858 0.268822 -0.097906 0.164793 -0.172145 0.159308 -0.045868 0.637937 -0.222632 0.114491 -0.003498 -0.021071 0.008758 0.354172 -0.449902 0.094392 0.024241 -0.042754 0.259559 0.101418 0.553034 -1.860807 -0.359988 -0.089231 0.110799 0.196335 0.303319 -0.339299 0.152255 -0.106251 -0.270758 0.025548 -0.266603 -0.410522 -0.646397 0.581134 -0.301922 -0.304293 0.096799 0.097772 -0.077559 -0.167665 -0.637475 -0.126031 0.490520 0.263628 -0.343588 -0.078661 0.273488 0.365588 0.446512 0.376267 -0.452102 0.332316 -0.499813 -0.063953 -0.099674 -0.135763 0.309563 -0.274543 -0.119652 -0.262405 0.038134 0.019651 0.358620 0.563853 0.388497 
590 -0.061031 0.051939 -0.030344 -0.429873 0.446280 -0.143612 -0.276332 -0.393515 0.400781 -0.612251 0.114203 -0.117742 0.101260 0.056209 -0.321739 0.034268 0.154492 0.504951 -0.066641 0.172372 -0.228282 -0.193074 0.281457 -0.102939 0.189749 -0.021666 -0.512757 -0.269833 0.315739 -0.285313 -0.386802 0.197947 0.472226 0.081364 -0.194352 -0.569967 0.023344 0.344439 -0.392967 -0.099439 0.137962 0.208369 -0.031746 -0.284077 -0.144597 0.208546 0.379563 0.007057 0.240489 0.192277 0.139617 -0.364334 -0.260169 -0.260683 -0.193860 0.039232 -0.365894 -0.249335 0.030425 0.818436 0.077216 -0.310138 -0.438448 0.135354 0.343178 -0.247576 -0.362141 0.005109 0.891465 0.087473 0.615401 -0.152616 -0.253416 -0.304179 -0.017378 -0.290996 0.067949 -0.140358 -0.374499 0.393928 -0.008449 -0.250016 -1.405218 -0.117687 -0.043375 -0.005068 0.221944 -0.219943 0.725723 0.223837 -0.486215 0.320397 -0.452166 -0.171322 0.461229 0.233072 -0.057233 -0.165870 0.191319 -0.886950 -0.176043 0.220848 -0.445515 -0.614396 0.162467 0.272992 -0.170410 0.253958 0.145971 0.144746 0.114255 -0.004918 0.519819 0.286851 -0.363888 0.229523 0.169618 -0.116811 -0.327084 0.059999 0.252887 0.495314 -0.074519 -0.320066 -0.005249 0.010836 -0.002377 -0.260130 
1258 0.281119 -0.159207 -0.464808 -0.625966 0.056439 -0.475108 -0.811689 -0.729109 0.007805 -0.262192 -0.122432 -0.009768 0.080635 0.462348 0.348171 0.245701 -0.022092 0.196179 1.004800 0.356972 -0.445886 0.458060 0.734484 0.144139 -0.415558 -0.410214 0.199660 -0.105320 0.229109 -0.419860 -0.125113 -0.783202 -0.223043 0.257674 -0.000173 -1.003439 -0.049928 0.170103 -0.314590 0.013388 -0.397020 -0.053795 -0.358178 -0.121950 0.143426 -0.230179 -0.581576 -0.209967 0.475669 -0.110926 0.557103 -0.569624 -0.269638 0.266569 -0.053007 0.236150 0.389733 0.022867 -0.165018 0.059288 0.381729 -0.239694 -0.146649 -0.360627 0.066954 0.675354 0.031180 -0.328186 0.417704 -0.396638 0.060969 0.361927 0.212061 0.356971 -0.031760 -0.454211 0.117093 0.251453 0.183651 0.172928 -0.117078 0.354726 -1.741522 -0.074713 0.499133 -0.228852 0.582555 0.038499 -0.119946 -0.061856 0.223971 -0.630370 -0.387768 0.128773 -0.121837 -0.790742 0.337214 -0.366731 0.174064 -0.135247 0.217212 0.053350 -0.191524 -0.470729 0.197868 0.231070 0.073190 -0.739777 -0.531504 0.455502 0.118361 0.389832 0.196525 -0.248043 0.195189 -0.487130 -0.089532 -0.022835 -0.063071 0.226081 -0.560689 -0.015083 -0.840398 -0.388735 0.273650 -0.138140 0.308698 0.247957 
924 0.161480 0.293057 0.508571 -0.024878 0.009276 -0.226675 -0.451937 -1.034970 -0.571548 0.363414 -0.286462 -0.475967 -0.050133 -0.406749 0.090595 0.552358 -0.065907 -0.200545 0.247782 0.112331 0.195651 -0.018791 0.440276 -0.065738 0.188655 -0.101373 0.675255 -0.783174 0.363348 0.098939 -0.302436 0.371042 0.120720 -0.317438 0.393939 -0.011103 0.377503 0.305359 -0.126037 -0.335069 0.030253 0.583009 -0.476455 -0.814507 -0.219321 0.431947 0.073207 0.017146 0.069046 0.345512 -0.194182 -0.229046 -0.646991 0.288753 -0.614764 -0.173706 -0.206755 0.550175 -0.166293 0.546736 0.231268 -0.545835 -0.118332 0.133241 0.768731 -0.165974 0.240301 -0.046342 -0.149550 0.226912 -0.332696 0.394471 -0.287130 0.345274 -0.242946 -0.508855 -0.142045 -0.214590 0.043570 0.351283 0.012734 -0.595772 -1.346778 0.022051 -0.313483 0.188960 0.037645 -0.352262 0.188317 -0.347429 0.133454 -0.072674 0.129767 0.003332 -0.371599 0.021773 -0.081788 0.177675 0.229009 0.198178 0.372606 1.023863 0.096921 -0.276684 0.063069 -0.008313 0.314134 -0.299200 -0.098435 0.008706 0.037234 -0.134215 0.476722 -0.404443 0.020679 0.337676 0.023755 0.002730 -0.772531 0.131945 0.438879 -0.046264 -0.066769 0.113957 -0.531319 0.399075 0.097710 -0.145797 
904 -0.388005 0.249021 0.031445 0.002112 0.040267 -0.251619 -0.604524 -0.898774 0.076631 -0.555914 -0.157943 -0.127488 -0.224613 -0.261644 -0.180426 0.178314 -0.057569 0.172565 1.008119 0.522004 0.145679 0.130276 0.270638 0.449312 -0.422285 -0.429983 0.230075 -0.486978 0.154608 0.080426 -0.374348 0.546293 0.209320 0.366337 -0.119905 -0.572705 -0.251868 0.534251 -0.454789 -0.354902 0.003024 -0.029159 -0.600779 -0.377965 -0.079808 -0.407907 0.086962 -0.241874 0.324694 -0.400989 -0.280619 -0.362090 -0.281965 0.059636 -0.453617 0.423670 -0.136841 -0.429026 -0.033303 0.474793 0.486774 -0.556391 0.005050 -0.043880 0.629831 -0.749129 0.154944 -0.408149 -0.133857 0.334067 -0.196808 0.296503 -0.217613 0.288220 0.091458 0.029973 0.120926 0.178005 0.301609 0.336789 0.124843 0.574101 -1.333000 -0.323258 -0.334940 0.586239 -0.149652 -0.268500 0.630913 -0.017368 0.043616 -0.090096 -0.422361 0.020118 -0.119305 0.009907 -0.117967 0.148349 0.321384 -0.335259 0.310346 0.779863 0.215948 -0.583185 0.567856 0.022575 0.320712 -0.301615 0.229773 -0.107566 0.017021 -0.147598 0.502176 -0.122043 -0.381663 -0.272125 -0.322611 -0.352846 -0.290890 -0.649068 0.184947 -0.090646 -0.165071 -0.025448 0.064616 -0.457610 -0.066702 0.090740 
908 -0.222001 0.343022 0.041819 -0.456891 -0.593646 0.227833 -0.590130 -0.913026 0.307636 -0.367774 -0.383724 -0.325609 0.059892 -0.396252 -0.303837 0.010673 0.193238 0.106767 0.648961 0.383603 -0.241157 0.442165 0.385512 0.294356 -0.342815 -0.464246 0.215208 -0.540897 -0.083576 -0.060359 -0.311790 0.429650 0.458535 0.101001 0.256933 -0.404539 -0.389214 0.783771 -0.160164 0.024898 -0.112051 0.342378 -0.362115 -0.579280 0.328713 -0.430660 0.044292 0.140618 0.431418 -0.105231 0.006574 -0.312347 -0.496067 0.283517 0.113740 0.397902 0.313994 -0.308890 0.030811 0.410593 0.244185 -0.513113 0.125359 0.186942 0.633394 -0.695545 0.156977 0.030945 -0.089302 0.323471 0.091767 0.229714 -0.334951 0.356766 0.293747 0.268301 0.195710 -0.196017 0.218463 0.461926 0.061545 0.167479 -1.464172 -0.039043 -0.391101 0.137973 -0.253551 -0.212760 0.529529 0.076362 -0.193127 -0.150112 -0.266663 -0.171030 0.015784 -0.158312 -0.019934 0.355561 0.007852 -0.553877 0.251472 0.940781 0.009919 -0.941480 0.594479 0.296544 0.233014 0.038727 0.251703 -0.027852 0.148629 -0.491623 0.536128 -0.208590 -0.284660 -0.269548 -0.080013 -0.235531 -0.398844 0.032540 0.080640 0.224684 -0.368399 0.098867 0.036275 -0.039432 0.134889 0.057508 
923 0.008638 0.292314 0.149584 -0.126001 -0.098243 0.031494 -0.557189 -0.899679 0.420335 -0.366118 -0.143309 -0.564890 -0.092012 -0.274753 -0.048675 0.010283 0.048243 -0.001281 0.491595 0.091207 -0.114200 0.131811 0.515182 0.393605 -0.409593 -0.273147 0.230873 -0.500316 0.267621 -0.008558 -0.338802 0.468243 0.093571 -0.216949 -0.069507 -0.109520 -0.308972 0.300911 -0.190972 0.061249 -0.031590 0.426390 -0.453619 -0.583761 -0.069442 0.001250 0.123903 -0.017232 0.101862 0.050351 0.058029 -0.530571 -0.495299 0.195654 0.024616 0.346054 0.328680 -0.109622 0.087149 0.466964 0.159899 -0.337173 0.290520 0.330474 0.175031 -1.144029 0.097470 -0.571616 -0.252486 0.256791 -0.075294 0.057530 -0.403141 0.371466 0.172185 -0.010186 0.091695 0.034396 0.165999 0.215955 0.175531 -0.008546 -1.798555 -0.360821 0.115216 0.241974 0.075599 0.005308 0.248993 -0.011916 -0.067214 -0.152322 -0.486162 -0.251420 -0.295641 -0.168403 0.201046 -0.052859 -0.101835 -0.140845 -0.333418 0.637524 -0.171857 -0.534091 0.746593 0.076513 0.109747 -0.083188 0.092932 -0.028469 0.134720 -0.633670 0.520204 -0.270306 -0.086112 -0.226467 -0.435087 -0.338574 -0.209070 0.242494 -0.102683 0.146453 -0.220665 0.247973 -0.413731 0.115590 0.235570 0.038457 
111 -0.332465 -0.343138 0.102774 0.900267 0.335885 -0.605132 0.408974 -0.816523 0.093454 0.226404 -0.097532 -0.525235 0.019073 -0.048074 0.030633 0.625861 -0.209243 0.100574 0.231867 0.181124 0.434282 -0.297069 -0.300323 -0.133153 0.200095 0.168418 -0.006073 -0.144339 -0.059385 0.154378 0.432740 0.031127 0.093379 0.237068 0.045813 -0.572560 -0.137084 0.767029 0.141142 -0.374478 -0.082986 -0.117004 -0.472780 0.379722 0.254300 -0.643164 -0.105308 -0.520609 -0.068210 0.095781 -0.028829 0.192975 -0.069898 -0.092444 0.297540 0.064948 0.368822 0.696158 -0.243411 -0.159833 -0.083989 0.163647 0.264377 0.833790 0.390258 -0.361738 -0.529920 -0.269923 0.125631 0.912308 0.177688 0.455940 0.227151 -0.150646 0.161889 -0.242023 0.154385 0.037907 0.417235 0.261354 -0.131629 -0.092523 -1.504442 -0.300728 -0.352682 0.217229 -0.395151 0.447191 0.563141 0.095080 -0.267608 0.050156 -0.104130 -0.389295 -0.304366 0.377941 0.210327 -0.138607 0.059856 -0.377263 0.027017 -0.163968 0.658835 0.322340 -0.045343 -0.334957 0.148701 0.306518 -0.269326 0.323659 -0.667454 -0.073747 -0.040122 -0.273986 0.027771 0.011790 0.387355 0.101852 0.483623 -0.054370 -0.060973 -0.063791 -0.399772 0.154243 -0.245950 0.084165 -0.170414 0.139940 
1193 -0.375330 -0.095191 0.027092 1.045961 0.183127 0.653013 0.124980 -0.974960 0.714591 -0.252498 -0.181316 0.004185 0.282319 -0.295259 -0.210479 0.057463 0.064834 -0.099373 0.532223 0.564218 0.162880 0.108731 0.466192 0.268381 -0.181240 -0.319743 0.749101 0.086484 0.209491 -0.667016 -0.290574 0.140671 -0.162246 0.045627 0.678391 -0.329376 -0.259061 0.405923 0.356729 0.183590 0.029500 -0.258824 -0.084193 0.076179 0.555470 -0.558247 0.039710 -0.131647 -0.064027 0.271215 -0.419284 0.318585 -0.442407 0.229261 0.221489 -0.647025 -0.298263 -0.324830 0.359271 0.848058 0.325459 -0.073260 -0.600399 0.123761 0.254091 -0.532656 0.026247 0.109892 0.073067 0.424557 -0.530100 0.163048 0.485270 0.407757 -0.736296 -0.181582 -0.273023 -0.121054 -0.363485 -0.038879 0.323088 0.309461 -1.449577 0.155250 0.093277 -0.032493 0.306779 -0.250480 -0.020444 -0.288331 0.278317 0.072770 -0.423242 -0.167647 0.090411 0.130972 0.298762 -0.320324 -0.131221 -0.128027 0.519121 0.946512 -0.316988 -0.014648 -0.249188 -0.375066 -0.111258 -0.232244 0.323019 0.137434 0.364600 0.697755 0.060912 0.542688 0.245279 -0.138833 0.036073 0.173048 -0.157978 0.120043 -0.263252 -0.059102 0.478040 0.076654 -0.400075 0.455486 0.366746 -0.348591 
3578 0.467380 0.071304 -0.801814 0.222488 -0.247534 0.221860 -0.014917 -0.582585 0.354034 0.070814 0.331440 -0.108293 0.042431 0.081403 -0.002847 -0.283959 0.404830 -0.041327 0.152854 -0.339882 -0.875800 -0.267632 -0.128128 0.265839 0.157241 -0.045858 0.182271 -0.111674 0.339727 -0.555264 -0.309068 0.015348 -0.373286 0.014635 -0.000307 -0.371609 0.323732 -0.042457 0.177242 0.121787 -0.030885 0.197418 0.421258 0.302571 0.133041 0.374115 -0.261443 0.121438 0.360259 -0.295475 0.314105 -0.201675 0.353631 -0.033628 -0.380748 0.002148 0.333819 -0.057590 -0.523872 -0.434835 0.432379 -0.161485 -0.335149 -0.196332 0.080967 0.086680 -0.349393 0.142428 -0.282673 -0.069606 0.010827 -0.402392 0.188599 -0.258912 -0.147334 0.080313 0.055263 0.132479 0.532057 -0.724980 -0.085486 -0.147270 -1.374368 -0.655940 0.095770 0.141805 -0.311770 0.028571 0.280670 -0.500877 0.522286 -0.042346 -0.512104 0.017505 0.131727 0.371988 0.347426 0.180146 0.419655 0.273584 0.031006 0.791354 0.260574 0.195984 -0.785043 0.397853 -0.160505 -0.304296 0.181657 -0.613919 -0.288835 -0.140250 0.295369 -0.012168 -0.260813 0.412927 0.213568 -0.493007 -0.413923 -0.521575 0.289078 0.311026 0.335378 0.482852 0.015045 -0.390584 0.329418 0.871793 
1208 -0.302678 -0.247875 -0.462226 -0.161814 0.034103 0.055451 0.021133 -1.277958 0.313515 0.109706 -0.061051 -0.645326 0.101301 -0.286682 -0.314253 0.584274 -0.111820 -0.193920 0.669045 0.264590 0.086078 0.220469 0.373992 0.354468 -0.053438 -0.060013 0.520555 -0.117440 0.282282 -0.329813 0.267506 -0.462732 -0.569931 0.475098 -0.148785 -0.449551 0.316811 0.143232 0.141735 -0.321614 -0.311032 0.186069 -0.488118 -0.352687 -0.121203 0.003919 -0.504398 -0.226650 -0.054666 0.581127 -0.272310 -0.021054 -0.125278 0.074459 0.090102 -0.599242 0.269451 -0.021614 -0.340301 0.334292 0.215559 -0.144990 0.564724 -0.020135 0.456923 -0.142663 -0.123658 -0.175007 0.160656 0.028063 0.288583 -0.032124 0.148078 -0.103899 0.120182 -0.310512 0.267673 -0.337239 -0.278020 0.622271 -0.511959 0.708237 -1.603063 -0.089129 -0.450146 0.081435 -0.023210 -0.008511 0.054771 -0.223564 0.457874 0.298137 0.244469 -0.293495 0.146293 0.459302 0.417806 -0.440583 0.577757 -0.001759 -0.061766 1.085423 -0.136970 -0.193619 0.158329 -0.197125 0.254735 -0.199340 -0.390951 -0.051003 0.391856 0.105360 0.087228 0.518624 0.046540 0.123640 0.155974 0.437573 -0.167820 -0.065274 -0.148148 -0.664743 -0.135997 -0.114277 0.042991 0.131489 0.109227 -0.251897 
4973 0.281798 -0.248087 -0.384024 0.106944 0.009247 -0.075572 -0.295137 -0.410261 -0.273801 0.101004 0.366213 0.065194 0.124889 -0.516305 -0.515810 -0.207307 0.620007 0.200531 -0.435779 -0.156721 -0.219449 -0.675616 -0.128579 -0.707979 0.025640 0.299363 -0.052309 -0.293963 0.215725 -0.893802 0.232262 0.131413 0.210399 -0.218847 -0.284952 -0.069051 0.034987 -0.302402 -0.348789 -0.072220 0.040438 0.039327 -0.418571 0.168232 -0.064034 -0.282320 -0.624209 0.420499 -0.552827 -0.517294 0.114663 -0.167839 0.167597 0.446197 -0.201354 -0.231501 0.403642 0.174882 -0.098089 -0.330579 0.266130 0.102530 -0.511785 -0.321400 -0.330757 -0.153140 0.408660 -0.526856 0.088252 -0.350937 -0.224833 -0.516485 0.002299 -0.130180 0.144405 -0.353825 0.573406 0.260128 0.225739 0.165881 -0.075666 0.258570 -1.931126 -0.434961 -0.084787 0.245288 -0.274950 0.200177 0.352482 0.081844 0.050438 0.139867 0.425727 0.459883 -0.138515 0.511367 0.807263 -0.390378 -0.018641 -0.432343 0.123130 0.167170 0.112365 0.089025 -0.312257 0.217474 -0.725836 0.122905 -0.302437 -0.395910 -0.302395 -0.052353 -0.173866 -0.240463 -0.691427 -0.230406 -0.061314 -0.393312 0.066155 -0.140890 -0.395809 0.293454 0.202627 -0.313877 0.516067 -0.352551 -0.465606 -0.387222 
1221 -0.209457 0.132371 -0.428434 -0.357429 -0.587263 0.532433 -0.155874 -1.127013 -0.064396 -0.272964 0.022659 -0.441632 0.228671 -0.451047 -0.208910 0.086017 -0.265249 0.123515 0.613159 -0.062987 -1.089705 0.465173 0.497529 0.604768 0.058101 -0.053565 0.219055 0.148865 0.464313 -0.237864 -0.243880 -0.096978 -0.180964 -0.059483 -0.034168 -0.304022 -0.156379 0.009232 0.248109 -0.139171 -0.966732 0.116460 -0.048555 0.162108 0.277945 0.203877 -0.353482 -0.072738 -0.147111 0.440856 0.070378 -0.599865 0.320492 0.068924 0.377134 -0.057662 -0.513928 -0.206181 -0.670313 0.526089 0.004673 -0.241497 0.424377 0.118747 0.281044 -0.068137 0.360964 -0.099439 -0.161921 0.115573 0.503735 0.114023 -0.001901 -0.224224 -0.505977 0.061784 -0.509918 -0.079217 -0.383213 0.123810 -0.406239 0.291067 -1.225631 -0.540395 0.052834 0.430880 0.084427 -0.400617 0.446555 0.062366 0.533278 0.213131 0.034684 -0.637663 -0.439000 0.430739 -0.040650 -0.124745 0.591407 -0.042202 0.205460 1.128945 0.126774 -0.067025 -0.009249 0.212020 -0.107933 0.043543 -0.772526 0.024675 -0.112254 0.031646 0.066525 0.525822 -0.120908 0.719775 0.283751 0.133679 0.202403 -0.383594 0.075480 -0.322053 -0.234041 0.216061 0.170800 -0.185701 0.248224 0.493353 
1240 0.331595 -0.179654 -0.553130 -0.721151 -0.046496 0.335421 0.114460 -1.221578 -0.096134 -0.091276 0.685259 -0.263631 -0.062524 0.425568 0.010533 0.356844 -0.275665 -0.091726 0.555065 0.187686 -0.114877 0.251686 0.630602 0.129800 0.176108 -0.207335 0.090433 -0.283649 -0.216332 -0.184316 -0.115317 -0.458946 -0.135573 0.125676 0.137452 -0.629605 0.263484 -0.060647 0.236669 0.058780 -0.271648 -0.046135 0.131853 -0.073908 0.157422 0.589541 0.117497 -0.215240 0.363515 0.432829 0.440515 0.016230 0.210211 0.209566 -0.049801 -0.322872 -0.101351 -0.642856 -0.389368 -0.142381 -0.083735 -0.432873 0.014661 -0.747812 0.316700 0.619494 -0.109561 -0.045869 0.352304 -0.569634 0.311326 0.102645 -0.163215 0.300688 0.281344 -0.359143 -0.254858 -0.194873 -0.354137 -0.024222 -0.414917 -0.119922 -1.888950 -0.435835 0.018712 -0.073837 -0.017448 -0.151626 -0.143924 -0.032365 0.276060 0.295418 0.049973 -0.756494 -0.208909 -0.254820 -0.247122 -0.319335 0.351111 -0.185519 -0.058755 0.158774 -0.439133 0.297858 0.015349 0.330844 0.220465 -0.374707 -0.114840 -0.123152 0.351963 0.462936 -0.116636 0.017851 0.266832 0.355511 0.103022 -0.071652 -0.412413 0.078627 0.035493 -0.321622 -0.617724 0.047300 -0.011491 0.403341 -0.439808 -0.066622 
380 0.149405 -0.059349 0.075871 -0.065310 0.234248 0.122131 0.031269 -0.262140 -0.199252 -0.699576 -0.141230 0.478700 0.196683 0.132427 -0.181710 -0.039540 0.100029 0.168786 0.087167 0.090218 -0.107331 0.031656 -1.167251 0.245927 -0.434417 0.180244 -0.741458 -0.086046 -0.105195 -0.268776 -0.409310 -0.389331 0.295399 -0.490786 0.096157 -0.297045 -0.148807 0.203053 0.086843 0.063785 0.239715 0.393672 -0.062589 -0.505832 0.057806 -0.439884 0.570634 0.178227 0.040456 -0.667827 0.206353 0.521900 -0.005851 0.024005 -0.435915 0.185227 0.058198 0.067338 0.037151 -0.087643 0.646545 -0.350508 -0.717478 -0.032584 0.167236 -0.013002 -0.288652 -0.008488 0.518216 -0.152148 0.690141 0.237855 -0.559643 -0.196542 0.182320 -0.216208 0.482522 -0.131636 0.468817 0.117268 -0.332549 0.338314 -1.904364 -0.184540 0.087591 -0.097249 -0.327277 0.031237 0.888149 0.268046 -0.311108 0.407059 -0.073727 -0.344165 0.312652 0.240748 -0.450786 0.355124 0.150121 -0.602909 -0.239876 0.333417 -0.149690 -0.183895 0.161640 -0.338383 0.110605 0.060230 0.311872 -0.325715 -0.127752 0.051966 0.382528 0.057836 0.431082 0.348342 0.143844 -0.544576 -0.476792 0.332912 -0.162473 0.070120 0.149962 -0.004777 0.729711 -0.049228 0.079337 -0.781643 
1200 -0.756347 -0.118352 0.008779 -0.412475 0.360825 -0.233436 -0.348948 -1.361458 0.292400 0.455705 0.360548 -0.606937 0.041268 0.272116 0.189686 0.371080 -0.301502 -0.189388 0.384565 0.388608 -0.172301 0.531318 -0.247545 0.243471 0.431925 0.006041 -0.217754 -0.261611 0.086868 -0.097018 0.005177 -0.261394 -0.101272 0.115388 0.086308 0.127070 0.324991 0.292686 0.652146 0.063938 -0.192802 0.348573 -0.774060 -0.109878 0.246322 -0.210994 0.521710 0.236929 -0.406569 0.246276 0.152977 0.293139 -0.264320 0.273949 -0.343025 -0.100556 -0.541556 -0.140605 -0.487780 0.240316 -0.180481 -0.342894 0.114439 -0.055562 0.170329 0.098467 -0.587400 0.278206 -0.099173 0.295952 -0.229477 0.050118 -0.248002 0.466827 0.004454 -0.107737 -0.351890 0.245587 0.096347 0.467936 0.053443 -0.336552 -1.649709 0.358396 0.012338 0.190312 0.160893 -0.332877 -0.133999 -0.562679 0.263491 0.125991 0.401734 -0.462742 0.292043 0.219629 -0.214123 -0.026601 0.317175 0.155651 -0.182570 0.418136 -0.109489 -0.619630 0.232203 -0.337753 -0.285934 -0.337673 -0.485742 0.184658 0.399150 0.082295 0.094137 0.219600 0.285582 0.114321 0.017295 0.072484 0.006106 -0.225942 -0.478832 -0.362543 0.270675 -0.184209 0.389765 0.450373 -0.151709 -0.046767 
1097 0.092014 -0.244072 -0.141833 0.517977 0.041199 0.574490 -0.022050 -1.191473 0.417176 -0.082328 0.133868 -0.288975 0.233193 -0.514109 -0.223327 0.318819 -0.528111 0.136279 0.511442 0.570124 0.137097 0.154408 -0.294941 0.413910 -0.069719 -0.506185 0.063741 0.207106 0.345653 0.066708 -0.379695 -0.320317 -0.416105 0.214290 -0.080078 -0.091094 0.343773 0.166177 0.839163 0.012173 -0.195577 -0.093241 -0.137396 -0.398800 0.299659 -0.250149 0.037070 -0.362412 0.214629 0.376707 0.064956 0.052560 -0.070018 0.196742 -0.509870 -0.575083 -0.406712 0.048359 -0.090114 0.581951 0.249898 -0.238389 -0.286730 -0.292065 -0.004393 -0.234059 0.340437 0.131475 0.080128 0.062565 -0.179791 -0.053978 0.087045 -0.013017 0.236564 -0.443806 -0.126414 0.355712 -0.416072 -0.047172 0.401248 0.048537 -1.930244 0.263809 0.406486 0.465845 0.118349 0.159133 -0.009849 -0.000665 0.219710 0.496530 -0.196620 -0.458614 -0.223123 0.314765 0.095667 0.034347 0.063553 0.366771 -0.551251 0.920402 -0.345646 -0.459666 0.171557 0.079025 -0.128976 -0.252870 0.041167 -0.270653 0.560028 0.202353 -0.122919 0.107459 0.218502 0.767636 0.316489 0.127683 -0.317787 0.250695 -0.263557 0.259841 0.098427 0.302396 -0.093474 -0.194059 0.252441 -0.648536 
79132 0.570213 -0.032059 -0.260151 0.546750 -0.604319 0.272188 0.110115 -1.183506 -0.448893 0.054488 0.052477 -0.454328 -0.090915 0.273045 -0.125936 0.386203 0.144715 0.934346 0.506718 -0.007953 0.083125 0.125283 -0.252959 0.145339 0.121367 0.819633 0.071402 -0.178570 -0.144719 -0.802239 -0.011586 -0.107868 -0.113635 -0.275521 -0.000598 -0.406269 -0.128673 -0.214251 -0.049571 0.282780 0.428570 -0.368998 -0.638332 -0.179187 -0.204015 -0.057704 0.117576 -0.046261 -0.259823 0.040769 0.418065 0.095676 0.123710 0.525812 -0.543045 -0.614776 0.231928 0.315739 0.210967 -0.411406 -0.120616 -0.298706 0.207242 0.219101 -0.834912 0.077485 0.052643 0.137014 -0.282415 0.165568 0.193121 -0.392205 -0.033220 0.040592 -0.044494 -0.246012 0.046782 -0.118505 0.226359 -0.000268 -0.200669 0.192380 -2.166670 -0.134661 -0.010215 -0.091798 0.173755 -0.214217 0.791419 0.081114 -0.034308 0.313658 0.566718 0.416164 0.479858 0.168302 0.145265 -0.130006 0.181609 0.140893 -0.044363 0.003145 -0.415269 -0.272103 -0.360686 -0.129814 0.183110 0.171696 0.021266 -0.035406 0.029909 0.030988 -0.083655 0.158391 -0.012496 -0.327611 0.174605 -0.311753 -0.452870 -0.552821 0.198849 0.494162 -0.059822 -0.426536 0.084322 -0.121259 0.108142 -0.109299 
592 -0.188196 -0.387656 0.018346 0.048590 -0.030220 0.263075 0.215841 -1.317339 -0.209273 -0.149099 0.258398 -0.275779 -0.097558 0.046337 -0.141747 0.543254 -0.185946 0.482329 0.542681 -0.073036 -0.441363 -0.660045 -0.032665 -0.116589 -0.365824 -0.000662 -0.382573 0.294920 -0.076361 0.446660 -0.306371 -0.127853 0.112675 -0.333534 -0.026021 0.136552 0.098484 -0.186786 0.081094 0.009202 -0.114652 0.247579 0.235003 0.200811 -0.172804 -0.204031 0.745057 -0.378215 0.274645 0.008979 0.027687 0.395504 -0.332219 -0.560566 -0.392391 0.010448 -0.302282 -0.163369 -0.639401 -0.098619 0.318955 -0.709258 -0.024524 0.235477 0.377059 -0.750658 -0.598111 0.384270 0.437887 -0.128509 0.332239 0.158245 -0.411853 -0.545742 0.010742 -0.162167 0.409790 0.056007 0.123867 -0.011021 0.251249 0.367141 -1.092608 -0.172583 -0.227420 0.340860 -0.266843 -0.095818 0.517062 0.508734 -0.226079 0.283848 0.004891 -0.243649 0.118922 0.300724 0.059190 -0.055554 0.396323 -0.729504 -0.349647 0.505204 -0.232026 -0.240472 0.114436 0.345574 -0.123149 -0.178456 -0.115889 0.075829 -0.300631 0.702532 0.518116 -0.156351 -0.049295 0.670873 -0.328018 -0.198936 -0.382996 0.342711 0.008702 -0.038788 0.210764 -0.142724 0.525998 0.352418 -0.609123 -0.045829 
2502 -0.116668 0.415785 0.065168 -0.163756 -0.106480 -0.256712 0.290922 -0.993842 -0.248481 0.596349 -0.916093 0.510716 0.257163 0.087648 0.415425 0.411982 -0.163624 -0.177797 0.436747 0.121724 -0.445022 0.217090 -0.080259 -0.753647 0.099684 0.233913 0.156047 -0.243924 0.258746 -0.470215 -0.224044 -0.337652 -0.531234 -0.030418 -0.482188 -0.439734 -0.455875 -0.141931 -0.241543 0.369159 0.133617 -0.236738 0.054870 0.319625 -0.381785 -0.623267 0.162382 0.076110 0.352660 0.298041 -0.089966 0.185137 0.143553 -0.452677 0.757816 0.139054 -0.290645 0.581898 -0.564267 0.102339 0.410319 0.250014 0.236972 -0.114675 0.177230 -0.160887 0.020212 0.122497 0.119887 0.131776 0.495498 -0.168371 -0.208867 -0.166318 -0.101329 0.158818 -0.233623 0.220421 0.252041 -0.049084 0.062844 -0.015422 -1.574055 -0.221380 -0.048935 -0.222931 -0.060114 0.027783 -0.039687 0.157402 0.164057 -0.134427 -0.398967 -0.340290 -0.386869 0.011324 0.119726 -0.147495 0.370887 -0.468621 0.298464 0.222302 0.161469 0.246142 -0.209291 0.644904 -0.023916 0.429939 0.119766 -0.134176 0.185918 0.861690 -0.148344 0.270323 -0.179207 -0.146316 -0.686570 -0.704591 -0.391834 -0.535241 -0.210571 0.255222 0.447003 -0.065542 -0.033656 -0.588663 0.227556 -0.010315 
750 -0.598132 0.245235 0.016805 0.150893 0.291094 0.260949 -0.349409 -0.655933 -0.125823 -0.707496 -0.193295 -0.167614 0.038330 -0.667391 -0.377798 0.433978 0.100971 0.050290 -0.031853 0.001315 0.312070 0.086092 -0.630747 0.261023 -0.185381 0.098548 -0.262479 -0.493885 0.408468 0.061436 0.356530 0.387912 0.438740 0.749487 -0.118438 -0.019932 -0.075834 0.387397 0.101389 -0.155146 -0.141412 0.146232 0.110631 -0.707999 0.438851 -0.003503 0.373600 -0.024906 0.298667 -0.105562 -0.307528 0.317319 -0.042435 -0.043938 -0.051695 0.198265 -0.889512 0.135633 -0.109866 -0.071196 0.206675 0.111407 -0.511531 -0.278189 0.736078 -0.662677 0.068205 0.266175 -0.139027 0.732783 -0.230327 -0.132593 -0.289815 -0.078396 0.352985 0.422148 -0.290646 0.000175 0.314844 0.408861 -0.160899 0.232269 -1.282793 0.092998 0.026578 0.648014 -0.634381 -0.322711 0.195869 0.130685 -0.325955 0.396518 -0.522856 -0.474309 -0.053657 0.278064 -0.015077 0.382925 0.611867 -0.607941 -0.131572 0.875960 -0.499074 -1.076118 0.153359 0.259810 0.047463 0.459389 -0.301037 -0.452752 -0.149806 0.205320 0.169666 0.546278 0.044018 0.166229 0.064071 0.027794 0.036552 -0.479875 0.162708 -0.261706 -0.204362 -0.297166 0.444558 0.107576 0.047979 -0.850827 
1073 -0.074321 -0.420624 0.380383 0.235933 -0.264600 0.374484 0.033949 -1.033195 0.128434 0.072402 -0.106165 -0.479105 -0.214884 -0.419326 -0.041679 -0.006914 -0.140788 0.483987 0.614576 0.612646 -0.477442 -0.184209 0.075238 -0.051756 0.399573 -0.211154 -0.199057 -0.263117 0.273701 0.020202 -0.370559 0.038058 -0.364208 0.328786 0.367638 -0.044784 0.096381 0.442628 0.156471 -0.279887 0.171739 -0.238668 -0.503986 0.089279 0.137891 -0.283063 0.453531 0.267433 0.084576 0.426650 -0.010035 0.227648 -0.146199 -0.089324 -0.858018 -0.351933 -0.352456 0.240808 -0.292350 0.677587 0.014670 0.044380 -0.294277 -0.053399 -0.229634 -0.398997 -0.029860 -0.338077 0.031708 -0.051272 -0.303633 -0.055306 -0.645328 0.101460 0.970827 -0.526267 -0.051505 0.551791 0.088578 -0.034066 0.573986 -0.202443 -1.390506 -0.478749 -0.005034 0.781903 0.370603 0.011223 -0.065521 0.105011 -0.267719 -0.078208 -0.248833 -0.390251 -0.043014 -0.118584 0.537022 0.357314 -0.176331 0.071103 -0.475896 0.471966 -0.264662 -0.484652 0.267959 0.246955 0.014274 -0.140438 0.043859 -0.108837 0.426764 -0.466853 0.136024 -0.067331 0.154592 0.187871 0.605360 0.097298 0.073177 -0.184315 -0.273207 -0.009629 -0.153399 0.240375 -0.302512 -0.061520 0.025328 -0.176654 
364 -0.054136 -0.017642 0.269790 -0.120404 0.270042 0.342292 0.432372 -0.062025 -0.127768 -0.537625 -0.030410 -0.132898 0.362550 -0.069472 -0.018512 0.282793 0.072199 0.064249 0.627014 0.411911 -0.408691 -0.268397 -0.526382 0.292623 -0.104807 -0.033303 -0.123455 0.005315 -0.138331 0.454172 -0.283978 0.326982 0.065678 -0.563804 0.142273 -0.266688 0.006112 0.713382 0.129132 0.018358 -0.074817 -0.003501 0.233125 -0.426689 -0.082273 0.035933 0.296268 -0.145701 0.577074 -0.266406 -0.033068 -0.059040 -0.121369 0.023269 -0.193653 0.183565 0.134990 0.057478 -0.313689 0.235766 0.516434 -0.352722 -0.500176 0.335373 0.054582 0.138738 -0.134696 -0.010472 0.454308 0.079335 0.405654 0.230837 -0.732410 -0.056004 0.102860 -0.127012 0.003310 0.036345 0.628550 0.420915 -0.383049 0.146473 -2.035319 -0.103417 0.138111 0.151209 -0.156616 -0.135953 0.552075 0.798393 0.037381 0.200595 -0.206499 -0.290122 0.124696 -0.334212 -0.271132 0.350928 -0.197400 -0.238320 -0.412096 -0.080135 0.167809 0.077532 0.312789 0.148720 0.584864 0.153950 0.100342 0.265258 -0.060436 -0.197789 0.389384 -0.103646 0.240812 0.556353 0.172462 -0.352743 0.078629 0.231990 -0.122438 0.158454 -0.340466 0.121901 0.403882 -0.090274 0.066544 0.341757 
912 0.221384 0.000464 -0.493703 -0.445065 0.296531 -0.137045 -0.279435 -1.082996 0.030216 -0.327395 -0.721776 -0.074215 0.265567 -0.418992 -0.017175 0.540586 0.755939 0.064623 0.408337 -0.254717 0.362544 -0.740950 -0.032919 -0.293976 0.048677 0.061699 0.534329 0.023831 0.484765 0.129557 -0.339777 0.487383 -0.329266 -0.015281 0.072684 -0.090229 0.164255 0.239467 0.036646 0.195948 -0.670468 0.399175 -0.074251 -0.833057 0.319221 -0.102339 0.117467 0.272290 0.423109 0.056520 0.221394 0.083380 -0.161793 -0.563287 0.093971 0.275373 -0.462618 0.262126 -0.408768 0.466112 0.800827 -0.753257 -0.275023 0.361766 0.420304 -0.382993 -0.219498 0.313612 0.318497 0.232838 0.059040 -0.254216 0.326511 -0.189144 0.017817 -0.262276 0.036244 -0.563595 0.500514 0.129892 0.290058 0.619994 -1.014000 -0.789426 -0.267075 0.375855 -0.629423 0.200089 0.448795 -0.306416 -0.468175 -0.201201 -0.588059 -0.083990 -0.773929 0.366360 0.160723 -0.284724 0.437850 0.128204 -0.022343 0.839517 -0.167807 -0.372231 0.344735 0.011383 0.123453 -0.024184 0.385336 0.306477 -0.301426 -0.033637 0.795947 -0.347642 -0.412211 0.947679 0.359487 -0.100621 -0.401469 -0.418792 0.207490 0.166158 -0.554712 0.008109 -0.317785 0.238452 0.674115 -0.423910 
4306 0.209206 0.084935 -0.231999 0.018399 -0.078359 0.083065 -0.550926 -0.346964 0.262917 0.206071 0.536338 -0.056477 0.237659 -0.558279 -0.369766 0.017671 0.411433 0.087244 0.170190 -0.269001 -0.188321 0.243169 -0.175599 -0.408997 -0.008551 -0.019731 -0.123690 -0.394727 0.838100 -0.565984 0.109799 0.139184 -0.004093 0.028257 0.029328 -0.120650 -0.250752 -0.000318 0.158841 -0.046154 0.040044 -0.180326 -0.488355 0.374025 0.242778 -0.284213 0.014957 0.150856 0.180911 -0.814525 0.190682 0.266686 0.209480 0.217836 -0.514735 -0.405370 0.365668 0.212698 0.036043 -0.258170 0.781029 -0.035549 0.203845 -0.497016 -0.073913 -0.489341 0.331343 -0.284819 0.011923 -0.368091 0.036153 -0.414387 0.098187 -0.337253 0.068284 -0.265131 0.415027 0.103320 0.565703 -0.068534 0.101775 0.011745 -1.319128 -0.255441 0.029144 0.338643 -0.417765 0.405368 0.691876 -0.350772 0.128667 -0.135467 -0.469985 -0.173021 -0.430290 0.483534 -0.301527 -0.262336 -0.089030 -0.115022 0.026997 0.567926 0.528335 -0.140830 -0.206038 -0.100400 -0.563060 0.042535 -0.390185 -0.756768 -0.005055 0.200506 -0.309332 -0.006208 0.061110 -0.297715 -0.318335 -0.457390 -0.485396 0.372506 -0.305823 -0.068452 0.650036 0.142228 0.451887 -0.578973 -0.319008 -0.122506 
1206 -0.096490 -0.230961 -0.306329 -0.188385 -0.103272 0.358591 0.147280 -1.072477 -0.298616 0.274077 -0.054243 -0.534656 0.302849 -0.350154 -0.099123 0.040286 -0.197068 -0.037615 0.604771 0.750143 -0.075055 0.066832 0.348615 0.473558 -0.131268 0.080895 0.650435 -0.373625 0.181089 -0.227941 0.249800 -0.103442 -0.244849 0.052570 0.085357 -0.418716 -0.036307 0.231578 0.275352 0.207381 -0.235943 0.449049 -0.300769 -0.485805 0.321626 -0.219031 -0.059212 0.106020 -0.245176 0.582974 0.087730 0.117837 -0.320709 0.437327 0.283790 -0.373712 0.259253 0.368697 -0.274033 0.419750 -0.431186 -0.317775 0.518325 0.209133 0.678822 -0.135201 -0.168907 0.205319 -0.123639 0.292759 -0.027075 -0.019448 0.345792 0.105960 -0.148585 0.084769 0.030335 -0.089031 0.247173 0.209343 0.074943 0.442184 -1.870024 -0.187400 0.069240 0.241455 0.290337 0.195725 0.110889 -0.144553 0.094854 0.046714 0.019843 -0.547204 -0.262399 0.266729 0.497959 -0.479829 0.402309 -0.505540 -0.059463 0.452660 -0.020146 -0.123709 -0.221227 -0.214104 0.205923 -0.039107 -0.303016 -0.177031 0.122520 -0.351191 0.233583 0.187412 0.071634 0.202954 -0.018499 0.045363 -0.030086 0.035384 -0.074647 -0.590312 0.028886 0.191830 -0.364745 0.140683 0.293411 -0.090578 
1225 -0.103450 -0.321318 -0.354030 -0.061346 -0.456863 -0.097031 -0.254421 -1.307969 0.055393 0.187908 0.473856 -0.153690 0.249322 0.240087 -0.400568 0.110691 0.173449 -0.226275 0.705766 0.361881 -0.218984 -0.167555 0.544858 0.232380 0.441666 -0.057831 0.451935 0.038881 0.240320 -0.694480 -0.606813 0.070864 -0.178210 0.405226 0.465381 -0.069523 -0.217691 0.264852 0.333768 0.037497 -0.002347 0.080211 -0.107928 -0.264103 0.021923 0.253107 0.010837 0.065233 0.277399 0.628081 0.518954 -0.422182 -0.300573 0.173869 0.250127 -0.300740 -0.157729 0.220202 -0.481501 -0.060418 -0.360149 -0.304180 -0.028206 -0.172207 0.411654 0.241751 -0.275012 -0.073597 0.606570 -0.012527 -0.238140 -0.078670 0.600838 0.337259 -0.638169 -0.040940 -0.307455 -0.252489 0.109050 0.296311 -0.371172 -0.429040 -1.757067 -0.296068 0.054910 0.072372 -0.043205 -0.531800 -0.396609 -0.252244 0.094902 -0.466709 -0.037117 -0.699942 -0.346635 0.444106 0.498279 -0.290675 0.287759 -0.027898 0.403443 0.298558 -0.205682 -0.242906 -0.645061 0.075424 0.015166 0.124145 0.112120 -0.092999 0.319170 0.146187 0.369903 -0.070285 0.583156 -0.181593 0.144043 0.173067 -0.137751 -0.298556 0.054978 -0.113906 -0.733710 0.194231 0.174525 0.517222 0.093017 0.340275 
595 0.023455 -0.057999 0.327393 -0.105700 0.305427 -0.175908 0.049761 -0.486306 0.015009 -0.777522 -0.121036 -0.627752 0.029188 -0.252367 -0.207819 0.376086 0.398575 0.275111 0.542013 -0.188052 -0.040658 0.123035 -0.214876 -0.112269 -0.044821 -0.085443 -0.532658 0.113577 0.247480 0.286771 -0.105806 0.115288 0.430526 -0.011884 0.162295 0.131022 0.066319 -0.063528 -0.022671 0.380650 -0.303946 -0.294724 -0.386984 -0.258835 0.326273 0.409951 0.139854 -0.352753 0.189642 0.213002 0.241093 0.287587 -0.327102 -0.242620 -0.134365 -0.055843 -0.203093 -0.320413 -0.163614 0.232270 0.318883 -0.927727 -0.290105 0.452094 0.347625 0.045532 -0.143757 -0.059006 0.705996 -0.124121 0.547622 0.412168 -0.255404 -1.028024 0.358623 -0.168850 -0.219420 -0.243938 0.007730 0.476245 0.128498 0.181660 -1.550940 -0.480799 0.030529 0.382838 -0.472126 -0.556540 0.632630 0.268355 -0.358667 0.301652 -0.419540 -0.232369 0.152001 -0.045764 0.028827 -0.071860 0.466272 -0.829367 -0.172668 0.340673 -0.095424 -0.479170 0.038474 0.397645 0.108987 0.457927 0.019957 -0.103319 -0.071950 0.167928 0.434617 0.238830 -0.154204 0.805128 0.049970 -0.130329 -0.491847 -0.216630 0.425893 -0.005531 -0.284944 -0.210685 0.155210 0.383738 -0.597975 -0.601033 
1213 -0.164243 -0.439309 -0.862432 -0.278228 -0.321197 -0.060551 0.439115 -0.930435 0.058157 -0.208539 -0.223426 -0.349715 0.207872 -0.449948 -0.399709 0.361214 -0.444678 -0.349604 0.472586 0.903758 -0.419783 -0.184445 -0.025627 0.204981 0.112755 0.046569 -0.254566 0.287690 0.101126 0.278036 -0.043740 -0.103150 -0.340086 0.034965 -0.339801 -0.428592 0.366253 0.723933 0.304879 0.142901 -0.465494 0.442401 -0.248543 -0.233482 -0.410496 -0.443381 -0.550320 -0.199471 -0.243161 0.496438 -0.144550 0.080842 -0.209672 -0.063893 0.081931 0.102870 0.142534 -0.248745 -0.356001 -0.173205 -0.776142 -0.344297 -0.270192 0.510169 0.984099 -0.027233 0.152016 0.273469 -0.061508 0.332270 0.108846 0.267059 -0.468088 0.193397 -0.700175 -0.088806 -0.043749 0.271103 0.313662 0.215147 -0.482854 0.410875 -1.647250 -0.262319 -0.405101 0.304623 -0.264887 -0.043057 -0.153976 0.123432 1.013010 -0.176987 -0.083611 -0.335863 -0.006015 0.579500 0.048849 0.041728 0.765151 -0.157535 -0.282333 0.767222 0.097521 0.026202 -0.328377 0.284473 0.053756 -0.386147 -0.117646 -0.250450 0.389503 0.078703 0.220271 0.680603 0.243443 0.121453 -0.143450 0.117742 0.007863 0.003366 -0.205787 -0.637455 -0.070656 -0.049639 0.299997 0.082496 0.016061 0.538111 
16 0.141768 0.587961 -0.094264 0.698379 0.549678 -0.361242 -0.157840 -0.834101 0.264648 0.062689 0.432633 -0.095764 0.283070 -0.039999 -0.259906 0.545102 0.145976 -0.175649 0.079206 0.148983 -0.091313 -0.388195 -0.215576 -0.273227 0.102153 0.389887 0.027906 -0.329476 0.273321 -0.600317 0.035296 0.026194 0.428034 -0.215181 0.480864 -0.566354 -0.270176 0.011271 -0.387011 -0.274944 0.291907 -0.061822 -0.301628 0.588360 0.214029 -0.547597 -0.038278 -0.417339 0.146761 0.025321 -0.030979 0.147472 -0.121458 -0.594492 0.201040 0.235781 -0.030132 0.355469 -0.222139 -0.419895 0.014494 -0.025180 -0.872922 0.494644 0.265753 0.001848 -0.251384 -0.331492 0.356685 0.446657 0.276303 0.467745 -0.208091 0.113246 -0.235396 -0.187826 -0.253542 0.020813 0.212604 0.477651 0.135810 -0.537860 -1.272804 0.064289 -0.296041 0.021865 -0.119842 -0.114644 0.388264 -0.209275 -0.017649 -0.036931 -0.215173 -0.133239 -0.064604 -0.287005 0.715297 0.267349 0.094139 -0.160461 0.358743 0.800950 0.597791 0.214678 0.073490 -0.506447 0.078545 -0.014815 -0.019883 0.456329 -0.398666 -0.015115 0.308265 0.245520 -0.022861 0.079340 0.263261 -0.340986 0.081544 -0.383024 -0.158940 -0.083232 -0.168395 -0.159588 -0.261397 -0.171975 0.166930 -0.224901 
6 0.296024 0.625634 -0.059758 0.542759 0.218030 -0.592363 0.097315 -1.013638 0.073763 0.135230 0.543776 -0.588983 0.413458 -0.097134 -0.766857 0.298552 -0.025983 0.235547 0.814680 -0.007433 0.123984 -0.553993 -0.295203 -0.029074 0.596289 0.250334 -0.294061 -0.173700 0.237568 -0.259551 -0.021913 0.072853 0.263193 -0.054730 0.544720 -0.284562 -0.099542 -0.016889 -0.077491 -0.024849 0.182045 -0.225267 -0.538973 0.347985 0.070344 -0.198076 0.320617 -0.328540 0.074035 -0.270473 0.100660 0.230789 -0.051627 -0.583956 0.042061 -0.238316 -0.371133 0.373974 -0.025204 -0.532821 0.142900 0.046475 -0.215697 0.319266 0.150719 0.130111 -0.573435 -0.227495 0.322133 0.108024 0.160317 0.344305 -0.414622 -0.213349 0.569588 -0.155686 0.041478 0.064472 0.266867 0.354190 0.143548 -0.330229 -1.282424 0.181860 -0.272527 -0.095141 -0.137942 -0.301933 0.540064 0.109998 -0.667918 -0.036175 -0.158494 -0.277132 -0.085343 -0.149022 0.287678 0.315557 0.309551 -0.000520 0.121501 0.588291 0.222218 -0.073979 0.002076 -0.325209 0.131987 0.162259 -0.212981 0.520543 -0.391972 -0.135882 -0.159816 -0.277213 0.213168 0.179899 0.165206 -0.196808 0.149810 -0.238641 0.296569 0.411777 -0.161516 -0.313406 0.393182 0.040701 -0.357158 0.022796 
4878 -0.079826 0.134522 -0.403452 0.435396 -0.557841 0.422160 -0.320684 -0.666304 -0.259480 -0.174058 0.210537 -0.009576 -0.034265 -0.738820 -0.087773 -0.119702 0.597409 0.031281 -0.124425 -0.537287 -0.402984 -0.041558 0.261608 -0.701111 -0.270249 0.244255 0.083166 -0.107478 -0.056808 -0.453830 0.069566 -0.086096 0.068175 -0.311734 -0.617454 -0.092436 -0.028301 -0.394555 0.173508 0.134181 0.256087 0.117188 -0.915340 0.109867 -0.289234 -0.910805 -0.755477 0.138801 -0.378992 -0.678333 0.122879 0.082168 0.100807 0.286897 0.220094 -0.403717 0.284433 0.571344 -0.324890 -0.709452 0.204079 0.311183 -0.193664 -0.609106 -0.389704 -0.448082 0.255785 -0.423882 -0.078196 -0.347256 0.277742 0.418796 0.236714 -0.157798 -0.047788 -0.330226 0.650948 -0.355894 0.559276 0.074840 0.145567 -0.236160 -1.550431 -0.028944 0.098369 0.142438 -0.018063 0.319635 0.442725 -0.000137 -0.122974 0.131952 -0.221647 0.115245 -0.004903 0.258744 0.197690 -0.330799 -0.243490 0.125395 0.004909 0.252648 0.375595 -0.054336 -0.211861 0.218743 -0.317494 0.088620 -0.339930 -0.485238 0.310279 0.157631 0.230266 -0.009203 -0.287004 0.035400 0.126016 -0.412353 -0.476264 -0.666064 -0.111847 0.580734 0.123159 0.144899 0.379214 -0.472853 -0.660032 0.082475 
1036 -0.018121 -0.134413 0.049972 0.262616 0.083720 -0.360031 -0.481220 -0.782122 0.875125 0.245706 -0.062463 -0.661767 -0.240161 -0.411213 0.019661 -0.075861 -0.291098 0.070293 0.386836 0.228859 -0.121080 -0.145706 0.254407 0.111302 0.665204 -0.554976 -0.130282 0.001730 0.754252 0.046884 -0.055890 0.390907 -0.101316 0.242122 0.012957 -0.043133 -0.084884 0.110486 0.366684 -0.391576 0.055717 0.470411 -0.312373 -0.628365 -0.219535 0.035139 0.177626 0.515314 0.360048 0.240634 0.137168 -0.328101 -0.900946 -0.224798 -0.534866 -0.157112 -0.154745 0.217201 0.290645 0.418075 0.047359 -0.323695 0.052631 0.045486 0.114907 -0.518960 0.412726 0.304599 0.035503 0.240756 -0.125022 -0.459667 0.134419 0.484269 0.399589 -0.743606 0.152319 0.475487 0.407596 -0.264050 0.910463 -0.294969 -1.891671 -0.347662 0.388967 0.531318 -0.060653 -0.010045 0.462097 0.296713 -0.258526 0.196844 -0.087895 -0.244915 -0.304918 0.169577 0.105315 0.147277 0.254513 0.087768 -0.419831 0.576621 -0.072036 -0.702396 0.205889 -0.062843 0.231654 -0.008866 0.265810 -0.112280 0.181477 -0.145483 -0.257671 -0.310552 0.141347 0.372202 0.518726 0.359226 0.183296 0.407877 -0.289920 0.353522 0.105548 -0.189696 -0.481928 0.495289 0.079400 -0.241422 
4995 0.232453 -0.271923 -0.387992 0.087901 0.030528 0.094258 -0.463841 -0.427862 0.128984 0.301305 -0.101167 -0.049948 0.246654 -0.473976 -0.460084 -0.164494 0.403350 0.294571 -0.485506 -0.101352 -0.370059 -0.106812 -0.014623 -0.416115 -0.066483 0.274930 0.040154 -0.298256 0.392257 -0.314814 0.287731 0.287415 0.582204 0.198502 0.139371 0.064629 0.010621 -0.543041 -0.132972 0.106158 0.281201 0.104586 -0.282192 0.033333 0.085669 0.083542 -0.207196 0.686037 -0.192470 -0.564013 0.436554 0.111587 -0.110568 0.355508 -0.260323 -0.241926 -0.316342 -0.001710 -0.252635 -0.214668 0.256511 0.300937 -0.045864 -0.523155 0.198604 -0.368198 0.221100 -0.483253 -0.147792 -0.064252 0.381832 -0.340624 0.055283 -0.309852 -0.080694 0.111414 0.196650 0.296885 0.481739 -0.157268 0.156393 0.074780 -1.780135 -0.027652 0.081380 -0.010047 -0.341078 -0.238051 0.665350 -0.114912 0.057691 0.492267 0.213149 -0.129489 -0.282073 0.528224 0.432192 0.027193 -0.036137 -0.369866 0.054220 0.659996 0.206806 -0.277491 -0.220384 0.725687 -0.665875 0.049333 -0.401738 -0.748241 0.038183 -0.046463 0.195678 -0.153993 -0.327337 -0.169648 -0.327112 -0.599909 -0.100936 -0.082882 0.014665 -0.354068 -0.091059 -0.163471 -0.046285 -0.688185 -0.672024 -0.455968 
1617 0.012885 0.181724 -0.500393 -0.101297 0.290145 -0.023258 0.100623 -0.694121 -0.392158 0.004344 -0.001755 -0.263801 0.412220 -0.045183 0.145016 0.220726 0.366825 -0.091639 0.767564 0.170780 -0.100928 0.107936 -0.154143 -0.614087 -0.094646 0.304339 -0.413621 -0.177142 0.115858 -0.370242 0.741882 0.110653 -0.355111 0.294636 -0.814485 -0.710996 0.601130 0.215581 -0.334580 0.086664 -0.089525 0.446564 0.366918 0.052215 0.231148 0.151295 -0.162316 -0.248642 -0.277387 0.752234 -0.076582 -0.084855 0.124650 -0.066653 0.074205 0.299333 -0.028626 0.444432 -0.276501 0.648179 -0.356175 0.105627 -0.474477 -0.056514 0.147906 0.423176 -0.170522 0.071272 0.531008 -0.066728 0.087882 -0.128384 -0.450152 0.162945 0.542833 0.080841 0.072740 0.681618 0.022558 -0.556351 0.142910 -0.119936 -1.598215 -0.374999 0.240518 0.047919 -0.294154 0.950527 0.293606 0.545166 0.239738 -0.031870 -0.331184 0.437445 -0.216595 -0.340041 0.104534 0.121141 0.466103 0.101373 0.101919 -0.354053 -0.852630 -0.560804 -0.500681 0.929846 -0.622867 0.146665 0.115424 0.522206 -0.097668 0.405378 -0.090447 0.456646 0.415713 -0.257681 0.720465 -0.331006 -0.030250 -0.151346 0.225980 0.090775 -0.522469 -0.125971 -0.090567 -0.552710 0.085884 0.359654 
3114 0.867217 0.345432 0.303741 -0.364590 -0.122181 -0.392198 -0.483192 -0.441075 0.447310 0.152509 -0.410173 -0.224683 -0.061403 0.091393 0.013074 -0.343500 0.071239 -0.449292 0.163355 -0.091623 -0.755008 -0.491677 0.250450 0.412353 0.031689 0.121112 0.507479 -0.373020 0.386514 -0.488459 0.287984 -0.227915 0.172707 0.312738 0.498393 -0.401896 -0.047620 -0.399925 0.008961 0.350748 -0.518932 0.037120 0.095729 0.104864 0.223097 -0.361847 -0.491626 0.207611 0.348443 -0.033489 0.091891 0.010703 -0.024841 0.433637 -0.289437 0.309545 -0.470284 0.277120 -0.184002 -0.326074 0.149038 -0.004631 -0.237637 -0.654820 0.094290 -0.048237 0.265767 0.634039 -0.334691 -0.062887 -0.050410 -0.111208 -0.119194 -0.251475 0.106913 0.134198 -0.251679 0.296740 0.812117 -0.600072 0.096343 -0.471047 -1.567902 0.342601 0.489054 0.589688 -0.317449 -0.142176 0.731279 -0.267210 0.591769 0.273188 -0.317843 0.350185 -0.220255 0.402655 0.367111 -0.142278 0.420829 0.657590 0.445532 0.581888 0.093313 -0.061007 -0.695191 0.408838 0.016154 0.077899 -0.288572 -0.264662 -0.298603 0.451610 0.493009 -0.300908 0.107661 -0.162768 -0.293280 -0.335852 0.045995 -0.026682 0.092900 0.078048 0.848607 0.234138 0.216536 0.018905 0.536132 0.086288 
377 -0.200790 -0.052364 0.058559 -0.077921 -0.066859 -0.305941 -0.186296 -0.613903 -0.124275 -0.345682 -0.281721 0.018003 0.426984 0.491803 0.413497 0.232218 0.267206 -0.046133 0.151652 0.203923 -0.242266 -0.304197 -0.311036 -0.099765 -0.356976 0.350085 -0.178934 0.262170 0.252523 0.142395 -0.322261 0.292416 0.207196 -0.735150 -0.109029 -0.630587 -0.352906 -0.150269 -0.255760 -0.358434 0.032090 0.257109 -0.214551 -0.502830 0.317247 -0.121030 0.237788 0.029436 0.290259 -0.350048 -0.030286 0.230118 -0.304027 0.390656 -0.132772 0.602984 0.377228 0.029570 0.366197 0.051510 0.118583 -0.361777 -0.231412 -0.182820 0.062133 -0.343900 0.263172 -0.654857 0.313003 0.086550 0.148398 0.206855 -0.428873 -0.187502 0.357436 -0.092511 0.479431 -0.371952 0.754181 0.501043 -0.411232 -0.362316 -1.262674 -0.057223 -0.017315 -0.002197 -0.248691 -0.130039 1.252062 0.286862 -0.479530 -0.479706 -0.347802 -0.450300 0.032982 0.051451 -0.298611 0.298850 0.180901 -0.231297 -0.410299 0.342089 -0.050278 -0.645101 0.601268 0.052786 0.229774 -0.513172 -0.185600 -0.044034 -0.106756 -0.089745 0.096498 -0.121819 0.201935 -0.092448 0.150514 -0.041083 -0.264454 0.071198 -0.253417 -0.055726 -0.424764 0.106600 0.342691 -0.254931 -0.045365 -0.456515 
